#ifndef __WEIGHTS_H_
#define __WEIGHTS_H

#include <stdlib.h>

float Layer1_Weights_CPU[156] = {-0.129, -0.294, -0.573, -0.478, -0.330, -0.313, 0.059, -0.010, 0.074, 0.105, 0.050, -0.474, -0.465, -0.279, -0.122, -0.393, 0.121, 0.156, 0.162, 0.225, -0.035, 0.795, 0.668, 0.418, 0.730, 0.504, 0.058, -0.482, -0.289, -0.302, -0.040, 0.122, -0.050, 0.158, 0.070, 0.384, 0.659, 0.124, 0.042, -0.238, 0.173, 0.717, 0.199, 0.045, -0.318, -0.244, 0.375, -0.340, -0.349, -0.140, -0.468, 0.044, -5.185, -0.028, -0.364, -0.090, 0.425, 0.913, -0.249, 0.043, -0.009, 0.575, 0.583, -0.139, -0.298, -0.004, 1.342, 0.099, -0.014, -0.069, 0.662, 0.895, 0.140, -0.048, 0.645, 0.787, 0.277, -0.270, 5.199, -1.248, -0.624, 0.003, 0.459, 0.383, -0.183, -0.881, -1.771, -1.033, 0.000, 0.283, 0.203, -0.080, -1.010, -1.200, 0.023, 0.099, 0.370, 0.220, -0.475, 0.179, 0.004, 0.071, 0.054, 0.343, -0.557, 0.741, 0.151, -0.193, -0.244, 0.259, 0.344, -0.115, -0.696, -0.048, 0.591, 0.325, 0.097, 0.047, 0.522, 0.334, 0.044, 0.466, 0.625, 0.416, -0.382, -0.220, -0.189, -0.083, -0.268, -0.265, -3.966, -0.397, -0.052, -0.090, -0.025, 0.159, -0.387, -0.547, -0.439, -0.620, -0.333, -0.289, -0.277, -0.147, 0.404, 0.887, 0.852, 1.104, 1.542, 1.173, 0.340, 0.909, 0.619, -0.025, -0.484, -0.393  };



float Layer2_Weights_CPU[7800] = {0.055, -0.073, 0.001, 0.298, 0.136, 0.141, 0.021, -0.061, -0.053, 0.101, 0.287, 0.160, -0.137, -0.010, 0.114, 0.039, 0.268, 0.051, -0.031, 0.151, 0.109, -0.069, 0.230, 0.075, 0.077, 0.034, 0.160, -0.014, 0.077, 0.050, 0.095, 0.040, 0.005, 0.005, 0.161, 0.159, -0.198, -0.046, -0.028, 0.029, 0.390, 0.129, -0.259, 0.096, 0.060, -0.080, 0.250, 0.179, 0.009, -0.096, 0.106, -0.112, 0.175, 0.186, 0.099, -0.075, 0.076, 0.004, 0.093, 0.148, 0.006, 0.072, -0.061, -0.222, 0.060, 0.104, -0.129, -0.008, 0.006, -0.224, 0.087, 0.107, -0.037, 0.007, 0.134, -0.188, -0.044, 0.127, 0.148, -0.077, 0.135, -0.115, -0.142, 0.179, 0.228, -0.024, 0.088, 0.162, -0.030, 0.183, 0.310, 0.160, 0.000, -0.280, -0.164, 0.208, 0.057, 0.026, 0.035, -0.328, -0.190, 0.060, 0.067, 0.049, -0.099, -0.235, -0.184, 0.075, 0.255, -0.039, -0.047, -0.304, -0.258, 0.005, 0.231, -0.020, 0.043, 0.036, -0.066, 0.053, 0.132, 0.045, -0.107, -0.223, -0.249, 0.058, 0.043, 0.022, -0.129, -0.166, -0.265, -0.009, 0.061, -0.018, -0.126, -0.044, -0.199, 0.025, 0.092, -0.024, -0.087, -0.159, -0.085, -0.089, 0.043, -0.076, 0.075, 0.140, -0.133, -0.004, -0.098, -0.013, -0.038, -0.050, 0.007, 0.035, -0.186, 0.025, -0.078, 0.080, -0.101, -0.021, 0.056, -0.008, -0.001, -0.019, 0.032, -0.062, -0.047, 0.038, 0.033, -0.147, 0.058, -0.023, -0.007, 0.002, -0.024, -0.105, -0.086, 0.036, -0.029, -0.079, 0.075, 0.034, -0.109, -0.084, -0.005, 0.028, -0.070, 0.071, -0.033, 0.037, 0.069, 0.079, -0.063, 0.078, -0.060, -0.062, -0.080, -0.043, -0.023, 0.076, -0.009, -0.004, -0.095, -0.052, -0.115, 0.044, 0.014, -0.074, -0.092, -0.091, -0.066, 0.067, 0.062, -0.029, -0.220, 0.046, -0.049, -0.018, -0.077, -0.084, 0.150, 0.142, -0.040, -0.038, -0.074, -0.110, -0.022, 0.037, -0.022, 0.054, -0.166, -0.082, -0.180, 0.015, -0.081, -0.053, -0.140, -0.057, -0.277, -0.007, 0.037, 0.022, -0.101, -0.038, -0.190, -0.079, 0.116, 0.039, -0.020, 0.078, 0.046, 0.068, 0.074, 0.120, 0.080, 0.071, -0.021, 0.076, 0.057, 0.144, -0.006, 0.051, -0.124, 0.022, -0.053, 0.147, -0.111, -0.088, -0.116, 0.030, -0.072, 0.063, -0.189, -0.063, -0.018, -0.017, 0.115, -0.077, 0.158, 0.024, 0.062, -0.059, 0.186, -0.095, 0.198, 0.081, 0.093, -0.016, 0.081, -0.129, 0.046, 0.034, 0.029, -0.011, 0.072, 0.045, -0.010, -0.012, 0.008, 0.067, 0.038, 0.010, -0.068, 0.074, -0.021, -0.044, 0.021, -0.024, 0.013, -0.005, -0.177, 0.035, -0.108, 0.067, -0.165, 0.120, 0.191, 0.045, -0.182, 0.084, -0.149, 0.055, 0.326, 0.018, -0.153, -0.050, -0.055, -0.056, 0.086, 0.071, 0.013, -0.066, -0.017, -0.168, 0.149, 0.025, 0.029, -0.040, 0.019, -0.107, 0.042, -0.056, -0.125, 0.023, -0.064, 0.020, 0.014, 0.056, -0.155, 0.130, -0.075, 0.003, 0.198, 0.066, -0.140, 0.071, 0.055, -0.099, -0.026, 0.090, 0.010, -0.019, -0.031, -0.281, -0.095, -0.019, -0.025, 0.084, 0.139, -0.205, -0.100, 0.044, -0.028, 0.019, 0.033, -0.057, -0.008, 0.035, 0.001, 0.022, -0.002, -0.179, -0.184, -0.055, -0.002, 0.027, -0.184, -0.080, -0.336, -0.026, -0.006, -0.060, -0.186, -0.091, -0.329, -0.067, 0.027, 0.029, -0.081, -0.159, -0.130, 0.025, 0.037, -0.046, 0.160, 0.011, -0.039, 0.163, 0.015, 0.211, 0.250, -0.186, -0.169, 0.092, 0.099, 0.019, -0.056, -0.111, -0.485, 0.007, 0.033, -0.110, -0.264, 0.012, -0.382, -0.101, 0.012, -0.080, -0.295, -0.025, -0.069, 0.031, 0.091, 0.185, 0.158, 0.075, -0.104, 0.124, 0.313, 0.341, 0.104, 0.080, -0.067, 0.076, 0.079, 0.094, 0.088, 0.046, -0.129, 0.040, 0.089, 0.058, -0.016, -0.008, -0.179, -0.029, -0.052, -0.007, -0.057, 0.004, 0.007, -0.048, -0.036, 0.047, 0.015, -0.019, -2.468, -0.027, 0.012, 0.135, 0.566, 0.081, -0.504, -0.074, 0.114, 0.197, 0.343, 0.082, -0.524, -0.067, 0.235, 0.127, 0.288, -0.035, -0.347, -0.077, 0.070, 0.004, 0.180, -0.054, -0.050, -0.032, 0.046, -0.197, 0.017, -0.143, 0.117, -0.053, 0.255, -0.127, 0.145, 0.176, -0.569, 0.096, -0.073, -0.238, 0.037, 0.128, -0.347, 0.043, -0.103, 0.030, 0.165, 0.153, -0.204, -0.011, -0.101, -0.013, 0.024, 0.043, -0.124, -0.081, 0.127, 0.059, -0.229, -0.189, 0.129, -0.051, 0.211, -0.716, -0.289, 0.158, -0.065, -0.044, 0.043, -0.331, -0.225, 0.296, -0.118, -0.128, -0.101, -0.294, -0.055, 0.247, 0.070, 0.053, -0.352, -0.243, -0.038, -0.059, 0.352, 0.151, 0.006, -0.225, 0.064, -0.288, 0.484, 0.443, -0.365, -0.162, -0.225, -0.188, 0.440, 0.319, -0.348, 0.109, 0.014, -0.194, 0.085, 0.372, -0.313, 0.592, 0.212, -0.094, -0.364, 0.176, -0.454, 0.475, 0.460, -0.278, -0.084, 0.220, -0.746, -0.112, 0.888, -0.200, 0.473, -0.018, 0.136, -0.165, -0.589, 0.206, 0.581, -0.316, 0.181, 0.374, -0.780, 0.272, 0.705, -0.217, 0.110, 0.723, -0.659, 0.454, 0.286, -0.372, 0.679, 0.757, -0.292, 0.124, 0.124, -0.079, 0.750, 0.858, 0.008, -0.142, 0.354, 0.030, -0.007, 0.007, 0.002, 0.034, 1.344, 0.024, -0.168, 0.028, 0.209, -0.020, 0.047, -0.035, 0.182, -0.555, 0.125, -0.136, -0.228, -0.180, 0.149, -0.298, 0.210, -0.152, -0.487, -0.002, 0.030, -0.357, 0.189, -0.164, -0.264, -0.036, -0.022, -0.554, 0.269, -0.140, -0.063, 0.098, -0.288, 0.413, -0.114, 0.234, 0.319, 0.011, 0.242, -0.270, 0.129, -0.104, 0.123, -0.083, 0.401, -0.396, 0.092, -0.170, -0.493, -0.238, 0.134, -0.036, -0.133, -0.070, -0.389, -0.080, -0.150, -0.175, 0.175, -0.178, -0.160, -0.142, -0.003, 0.389, -0.329, 0.244, 0.730, 0.056, -0.320, -0.090, -0.410, 0.059, 0.435, 0.189, 0.196, -0.541, 0.007, -0.096, -0.073, 0.035, -0.009, -0.315, -0.252, -0.059, -0.325, 0.002, -0.190, -0.175, 0.026, -0.152, -0.263, -0.018, 0.158, 0.688, -0.153, 0.087, 0.357, 0.109, 0.028, 0.465, -0.075, 0.072, 0.368, 0.147, 0.163, 0.011, 0.035, 0.143, 0.046, 0.060, 0.003, 0.028, -0.130, -0.014, -0.082, 0.092, -0.070, -0.024, 0.090, -0.017, -0.175, -0.114, -0.195, 0.300, -0.164, 0.050, 0.174, 0.098, 0.132, 0.619, -0.000, -0.237, 0.385, 0.105, -0.039, 0.360, 0.034, -0.066, 0.015, 0.093, 0.013, 0.415, 0.034, 0.048, -0.168, 0.090, -0.109, 0.177, 0.133, 0.168, -0.139, 0.004, 0.003, 0.009, 0.019, 0.035, 0.176, 0.083, 0.084, 0.137, 0.138, 0.222, 0.081, 0.028, -0.027, -0.016, 0.121, 0.142, 0.015, 0.104, -0.029, 0.037, 0.100, 0.021, -0.025, 0.070, -0.010, -0.043, 0.151, -0.115, -0.090, -0.068, 0.068, 0.070, 0.020, -0.123, -0.223, -0.142, -0.030, 0.284, 0.227, 0.315, -0.032, -0.013, -0.001, 0.423, 0.226, 0.159, 0.075, 0.043, -0.061, 0.357, 0.008, 0.100, 0.097, 0.206, -0.105, 0.274, 0.082, -0.185, 0.065, 0.009, 0.073, 0.156, 0.054, -0.104, -0.109, -0.088, 0.002, 0.273, 0.280, 0.284, -0.272, -0.021, 0.072, 0.362, 0.397, 0.218, 0.050, -0.037, -0.043, 0.287, 0.132, 0.098, 0.198, 0.168, -0.072, 0.174, 0.310, -0.156, 0.243, 0.086, 0.040, 0.144, 0.259, -0.106, 0.085, -0.075, -0.015, 0.086, 0.312, 0.120, -0.271, -0.027, -0.015, 0.057, 0.255, 0.025, -0.026, -0.002, -0.008, 0.066, 0.262, 0.121, 0.057, 0.020, 0.102, -0.097, 0.430, -0.023, 0.235, 0.129, -0.074, -0.072, 0.322, -0.072, 0.327, 0.103, 0.034, -0.250, 0.339, 0.025, -0.066, 0.080, -0.063, -0.293, 0.316, -0.034, 0.001, 0.066, -0.093, -0.256, 0.214, -0.003, 0.070, 0.066, -0.055, -0.259, 0.299, -0.047, 0.202, 0.113, -0.111, -0.025, 0.077, 0.102, 0.300, -0.006, 0.019, -0.032, 0.026, -0.045, 0.372, -0.204, -0.026, 0.019, -0.235, 0.221, -0.086, -0.073, -0.019, -0.023, -0.077, 0.194, 0.297, -0.055, 0.145, 0.063, -0.060, 0.107, 0.365, 0.030, 0.221, 0.411, -0.208, -0.060, 0.222, 0.007, 0.302, 0.362, -0.267, -0.088, 0.070, -0.045, -0.056, -0.155, -0.214, -0.121, -0.074, 0.021, -0.034, 0.090, -0.188, -0.171, -0.516, -0.179, -0.103, 0.332, -0.122, -0.211, -0.840, -0.149, -0.155, 0.292, -0.160, -0.254, -0.583, -0.071, 0.038, 0.355, -0.169, -0.209, -0.158, -0.013, 0.002, 0.110, 0.369, -0.066, 0.257, 0.067, -0.161, 0.172, 0.391, 0.043, 0.162, 0.169, 0.023, 0.037, 0.364, -0.055, -0.187, 0.150, 0.127, -0.141, 0.326, -0.066, -0.172, 0.025, 0.086, 0.102, 0.119, -0.034, 0.009, -0.178, 0.100, 0.275, 0.050, 0.215, -0.250, -0.133, 0.156, 0.148, 0.075, 0.262, 0.072, -0.071, 0.290, 0.269, 0.022, 0.038, 0.048, -0.088, 0.135, 0.208, -0.104, 0.055, 0.094, -0.067, 0.031, 0.135, -0.096, 0.051, -0.095, 0.075, -0.007, -0.081, -0.164, -0.120, -0.022, 0.003, -0.001, -0.111, -0.491, -0.096, 0.125, -0.118, -0.004, -0.098, -0.396, -0.067, 0.010, -0.202, 0.013, -0.062, -0.207, 0.026, -0.038, -0.195, 0.173, 0.084, -0.109, -0.014, -0.106, 0.048, 0.029, -0.022, 0.006, -0.015, -0.176, -0.017, -0.044, 0.102, -0.179, -0.223, 0.154, 0.003, -0.104, 0.072, -0.218, -0.237, 0.169, 0.003, -0.148, 0.010, -0.148, -0.209, 0.034, 0.036, -0.154, -0.091, -0.129, -0.291, 0.156, 0.116, -0.096, -0.120, 0.035, -0.153, 0.204, -0.077, -0.210, 0.182, 0.017, -0.208, 0.017, 0.034, -0.289, 0.159, -0.021, -0.167, 0.097, 0.101, -0.215, 0.125, 0.034, -0.202, -0.075, 0.150, -0.199, 0.107, 0.114, -0.311, -0.026, 0.144, -0.145, 0.039, 0.088, -0.194, 0.088, 0.045, -0.048, 0.301, 0.107, -0.145, -0.195, 0.163, 0.007, 0.280, 0.124, -0.084, -0.337, 0.062, 0.027, 0.254, 0.075, -0.109, -0.380, 0.088, 0.022, 0.176, -0.007, -0.075, -0.279, 0.001, 0.001, 0.040, -0.081, -0.019, -0.066, 0.074, 0.027, 0.202, -0.036, -0.012, -0.162, 0.101, 0.086, 0.180, 0.006, 0.125, -0.283, 0.016, 0.170, 0.008, 0.022, 0.086, -0.145, 0.009, 0.160, -0.061, 0.018, 0.135, -0.093, 0.040, 0.044, 0.014, -0.042, 0.107, 0.085, -0.023, 0.035, 0.163, -0.085, 0.076, -0.142, 0.038, 0.074, 0.096, 0.005, 0.152, -0.076, 0.086, 0.018, 0.058, 0.106, 0.139, 0.027, -0.004, -0.029, 0.009, 0.091, 0.108, 0.033, 0.012, -0.007, 0.132, 0.126, 0.211, 0.101, -0.007, 0.011, -0.021, -0.028, -0.050, -0.981, 0.130, -0.086, -0.207, -0.376, -0.039, 0.633, 0.037, -0.206, -0.160, -0.434, 0.013, 0.413, -0.001, -0.088, -0.153, -0.307, -0.088, -0.112, 0.044, -0.074, 0.382, 0.035, -0.242, -0.227, -0.004, 0.025, 0.328, 0.101, -0.157, -0.081, 0.078, -0.002, -0.019, -0.459, -0.036, 0.739, 0.067, -0.134, 0.156, -0.287, -0.184, 0.332, 0.068, -0.088, 0.085, -0.019, -0.122, -0.057, 0.063, 0.054, 0.354, 0.423, -0.286, -0.199, 0.031, 0.014, 0.199, 0.331, -0.150, -0.183, -0.043, -0.120, 0.076, -0.328, -0.244, 0.297, -0.024, -0.018, 0.269, 0.105, -0.099, 0.029, 0.066, 0.096, 0.227, 0.315, 0.002, -0.014, 0.155, 0.101, 0.160, 0.667, -0.252, -0.398, 0.043, 0.115, 0.215, 0.285, -0.065, -0.153, -0.180, -0.078, 0.008, -0.188, -0.004, -0.015, -0.000, 0.119, 0.286, 0.357, -0.081, -0.007, 0.061, 0.094, 0.280, 0.672, -0.018, -0.116, 0.118, -0.015, 0.190, 0.569, 0.023, -0.310, 0.058, 0.203, 0.228, 0.227, 0.189, -0.121, -0.144, 0.021, -0.019, 0.215, -0.156, -0.028, -0.083, 0.048, 0.199, 0.425, -0.170, -0.013, -0.080, 0.107, 0.264, 0.269, 0.065, -0.086, 0.086, 0.058, -0.147, 0.221, 0.085, -0.001, 0.165, 0.083, 0.020, 0.027, 0.029, 0.170, 0.048, -0.019, 0.045, -0.019, -0.013, 0.246, -0.093, 0.008, 0.061, 0.005, 0.013, -0.055, -0.004, 0.018, 0.125, 0.041, -0.121, -0.066, -0.073, 0.036, 0.026, 0.067, -0.018, -0.096, -0.026, 0.063, 0.015, -0.007, -0.095, -0.073, 0.001, 0.017, -0.026, 0.035, -0.123, 0.042, -0.090, 0.040, -0.025, -0.081, -0.034, -0.055, -0.069, 0.054, -0.008, -0.086, -0.051, 0.019, -0.052, 0.038, 0.057, -0.091, -0.020, -0.007, -0.024, 0.068, 0.051, -0.028, -0.118, 0.008, -0.052, 0.003, -0.015, -0.019, -0.082, -0.080, -0.011, 0.062, 0.048, 0.036, 0.039, 0.030, 0.039, 0.075, 0.085, -0.006, -0.067, -0.030, -0.042, -0.027, 0.078, -0.076, -0.069, 0.018, 0.045, 0.136, 0.039, -0.008, -0.041, 0.027, 0.005, 0.065, -0.008, 0.015, 0.004, 0.037, -0.013, 0.004, 0.062, -0.085, 0.072, -0.035, 0.022, -0.005, 0.005, -0.150, 0.023, -0.044, 0.036, 0.047, 0.108, -0.107, 0.029, 0.005, 0.026, 0.080, -0.032, -0.072, -0.014, -0.007, -0.059, 0.032, -0.086, -0.018, 0.058, -0.081, -0.003, -0.029, -0.097, 0.062, -0.018, 0.029, 0.045, -0.012, -0.142, -0.046, -0.011, 0.087, -0.073, 0.054, -0.061, 0.142, 0.021, 0.069, 0.041, 0.050, 0.024, 0.070, 0.085, -0.000, -0.025, -0.004, -0.037, 0.040, 0.085, -0.004, -0.031, -0.046, 0.046, 0.036, 0.005, -0.766, 0.025, 0.110, -0.200, 0.226, -0.310, -0.112, -0.030, 0.019, 0.158, 0.157, -0.245, 0.073, 0.059, 0.013, 0.144, 0.197, -0.119, -0.039, 0.066, 0.238, 0.339, 0.056, -0.099, -0.290, -0.069, 0.190, 0.098, -0.116, -0.012, -0.208, -0.019, 0.045, 0.002, 0.413, -0.302, -0.224, 0.055, 0.105, 0.228, 0.246, -0.129, -0.027, -0.057, 0.005, 0.154, 0.194, -0.027, -0.255, -0.007, 0.114, 0.144, 0.098, 0.022, -0.573, -0.102, 0.097, 0.165, 0.077, 0.070, -0.371, 0.133, 0.201, 0.048, 0.506, -0.374, -0.108, -0.109, 0.050, 0.135, 0.022, -0.012, -0.220, -0.194, 0.098, 0.166, 0.052, 0.147, -0.319, -0.084, -0.009, 0.209, 0.263, -0.046, -0.523, -0.198, 0.071, 0.033, 0.230, 0.017, -0.466, 0.103, 0.094, 0.003, 0.609, -0.186, 0.126, -0.077, -0.057, -0.024, 0.106, -0.075, -0.036, -0.060, 0.160, 0.245, -0.159, 0.010, -0.107, 0.029, 0.012, 0.089, 0.085, -0.038, -0.294, -0.015, -0.215, -0.272, 0.359, -0.157, -0.241, 0.010, 0.074, -0.122, 0.035, -0.005, 0.078, -0.078, -0.067, -0.019, 0.019, -0.206, 0.139, -0.122, 0.020, 0.257, 0.036, -0.065, -0.008, -0.106, 0.142, 0.137, 0.232, -0.082, -0.081, 0.067, -0.070, -0.291, 0.430, -0.122, -0.004, 0.042, 0.040, -0.012, 0.050, 0.003, -0.316, 0.033, -0.007, -0.037, -0.097, -0.098, 0.019, 0.044, 0.019, 0.025, -0.104, -0.075, -0.036, 0.066, 0.001, 0.090, 0.110, -0.118, -0.083, 0.076, -0.012, 0.217, 0.087, 0.004, -0.040, -0.067, -0.124, 0.110, 0.013, -0.033, -0.012, 0.029, -0.076, -0.054, -0.152, -0.168, 0.038, 0.036, -0.012, 0.208, -0.089, -0.175, 0.010, 0.057, 0.019, -0.058, -0.029, -0.052, -0.132, 0.100, -0.006, 0.004, -0.048, -0.042, -0.084, -0.009, -0.018, -0.028, -0.037, -0.020, -0.068, 0.030, -0.066, -0.093, -0.048, -0.095, -0.048, 0.062, 0.016, -0.025, -0.090, 0.054, -0.055, 0.131, 0.050, 0.025, -0.013, 0.041, -0.083, 0.132, 0.043, -0.028, -0.114, 0.053, -0.101, 0.020, -0.030, -0.075, -0.019, -0.056, 0.015, 0.027, 0.093, -0.171, 0.032, -0.082, -0.021, 0.013, 0.027, -0.067, -0.028, 0.072, -0.050, 0.096, 0.056, -0.011, -0.014, 0.038, -0.069, 0.069, 0.014, 0.101, -0.011, 0.108, -0.075, 0.056, -0.140, 0.052, 0.118, 0.100, 0.074, -0.101, 0.012, -0.153, -0.116, -0.125, 0.016, 0.020, -0.108, -0.098, -0.165, 0.061, 0.029, -0.001, -0.068, -0.195, -0.050, 0.040, 0.026, 0.035, -0.089, 0.002, 0.017, 0.034, -0.025, 0.133, -0.064, -0.041, 0.070, 0.068, 0.037, 0.007, -0.027, -0.026, -0.033, -0.038, 0.400, -0.019, -0.165, -0.202, 0.305, 0.229, -0.269, -0.031, -0.131, -0.178, 0.338, 0.229, -0.293, 0.027, 0.007, -0.017, 0.179, 0.206, -0.154, -0.019, 0.060, -0.152, 0.127, 0.261, -0.136, 0.056, 0.270, -0.008, 0.121, 0.081, 0.024, 0.137, 0.016, 0.061, 0.226, 0.361, -0.215, 0.017, 0.071, -0.019, 0.147, 0.394, -0.153, 0.069, 0.162, 0.089, -0.054, 0.276, -0.073, 0.009, 0.061, 0.017, -0.155, 0.154, 0.120, 0.036, 0.123, 0.099, -0.046, 0.126, 0.123, 0.070, 0.025, 0.047, 0.079, 0.264, -0.022, 0.055, 0.009, -0.038, -0.055, 0.150, 0.129, -0.014, 0.061, 0.030, -0.063, 0.111, 0.235, -0.002, -0.068, -0.054, -0.047, 0.021, 0.409, 0.069, 0.119, 0.074, -0.096, 0.023, 0.343, 0.085, -0.183, 0.020, -0.137, 0.242, -0.013, -0.016, -0.062, 0.028, -0.131, -0.021, 0.124, 0.093, -0.046, 0.012, -0.014, -0.134, 0.135, 0.059, -0.055, -0.042, 0.018, -0.266, 0.266, 0.098, 0.130, 0.121, -0.122, -0.136, 0.154, -0.012, -0.121, 0.016, 0.024, 0.159, 0.042, -0.083, -0.167, 0.114, 0.016, -0.098, -0.007, -0.029, 0.047, 0.162, 0.070, -0.168, 0.076, -0.014, -0.007, 0.002, 0.151, -0.184, 0.175, -0.054, 0.084, 0.121, 0.064, -0.046, 0.053, 0.019, -0.004, -0.028, 0.023, -0.007, -0.515, 0.061, -0.069, -0.189, 0.070, -0.021, 0.012, -0.034, 0.025, -0.282, 0.046, 0.004, 0.014, 0.002, 0.123, -0.266, -0.109, 0.139, 0.139, -0.028, 0.014, -0.114, -0.220, 0.174, 0.103, 0.057, -0.029, 0.168, -0.054, 0.031, 0.089, -0.027, -0.024, -0.100, -0.002, 0.115, 0.063, -0.044, 0.104, -0.265, -0.022, 0.028, 0.069, -0.086, 0.071, -0.356, -0.125, 0.125, 0.058, -0.018, 0.053, -0.229, -0.301, 0.224, 0.190, -0.068, 0.082, 0.048, -0.101, 0.109, 0.108, -0.014, -0.150, -0.080, -0.037, 0.056, 0.037, 0.102, -0.013, -0.174, 0.156, -0.088, -0.097, 0.031, -0.040, -0.127, 0.051, -0.086, -0.115, 0.079, -0.167, -0.056, -0.108, 0.094, -0.101, 0.064, 0.072, 0.083, -0.045, -0.058, -0.080, 0.046, -0.051, 0.050, 0.064, 0.044, -0.082, 0.037, 0.014, 0.040, 0.052, 0.105, 0.039, -0.045, 0.092, 0.143, -0.154, 0.191, 0.127, -0.015, 0.031, 0.079, -0.188, 0.076, -0.030, 0.022, 0.101, 0.193, -0.021, -0.131, 0.030, -0.045, 0.076, 0.259, 0.089, 0.161, -0.173, -0.092, 0.127, 0.210, 0.042, 0.140, -0.186, -0.072, 0.139, 0.090, 0.181, 0.050, -0.140, -0.068, -0.023, -0.033, 0.271, -0.039, -0.081, 0.003, -0.016, 0.027, 0.210, -0.056, 0.083, 0.041, -0.002, -0.043, 0.022, 0.047, -0.080, -0.031, -0.116, -0.190, 0.121, 0.002, -0.048, 0.001, 0.025, -0.031, 0.087, -0.009, -0.029, 0.058, 0.041, 0.064, 0.003, 0.005, 0.069, 0.051, 0.037, -0.107, -0.045, -0.056, 0.152, -0.012, 0.205, 0.052, 0.114, -0.106, 0.127, -0.033, -0.050, -0.114, 0.253, 0.125, -0.180, 0.026, -0.040, -0.005, 0.200, 0.201, -0.250, -0.058, -0.035, -0.023, -0.050, 0.118, -0.264, -0.104, -0.020, -0.045, -0.065, 0.083, -0.140, 0.019, 0.073, 0.023, 0.048, -0.076, -0.001, 0.036, -0.064, -0.129, -0.032, 0.070, -0.019, 0.034, -0.008, 0.027, -0.046, 0.034, -0.022, 0.007, -0.034, 0.040, 0.008, 0.125, -0.072, -0.050, -0.032, 0.051, -0.091, 0.018, 0.051, 0.001, 0.164, 0.083, 0.100, -0.002, 0.053, -0.050, -0.090, 0.003, -0.115, 0.018, 0.076, 0.019, -0.021, 0.058, -0.104, 0.116, 0.103, -0.006, -0.052, 0.063, -0.031, -0.074, 0.088, -0.003, -0.059, 0.147, -0.026, -0.034, 0.041, -0.056, 0.095, 0.047, 0.130, -0.056, -0.022, -0.102, 0.032, -0.075, 0.091, -0.072, 0.051, -0.136, -0.105, -0.015, -0.048, -0.028, 0.134, -0.064, -0.021, -0.034, 0.005, -0.166, 0.063, -0.025, -0.027, 0.228, 0.027, -0.178, 0.001, 0.027, 0.050, 0.084, 0.019, -0.087, 0.016, -0.040, 0.025, 0.009, 0.028, -0.024, 0.069, 0.039, 0.020, 0.108, -0.071, -0.025, 0.022, 0.011, 0.055, -0.074, -0.177, -0.106, 0.072, 0.051, 0.082, -0.355, -0.098, -0.079, 0.120, -0.009, 0.005, -0.419, -0.036, 0.143, 0.214, 0.062, -0.006, -0.263, 0.175, 0.108, 0.130, 0.054, -0.095, 0.128, -0.152, -0.201, 0.129, 0.022, -0.088, -0.096, -0.302, -0.140, 0.065, 0.025, 0.083, -0.355, -0.227, -0.074, 0.110, 0.002, -0.034, -0.424, -0.108, 0.142, 0.231, 0.058, -0.065, -0.436, 0.051, 0.139, 0.116, -0.058, -0.076, -0.079, -0.241, -0.154, 0.048, -0.023, -0.130, -0.197, -0.333, -0.153, -0.087, 0.077, 0.095, -0.281, -0.348, -0.040, 0.024, -0.052, -0.061, -0.253, -0.185, 0.156, 0.068, -0.142, -0.127, -0.224, 0.055, 0.056, -0.076, 0.054, -0.089, -0.159, -0.178, -0.031, -0.091, 0.051, -0.010, -0.303, -0.302, -0.117, -0.055, -0.027, 0.150, -0.315, -0.350, 0.117, 0.005, -0.173, -0.017, -0.330, -0.381, 0.011, -0.081, -0.083, -0.005, -0.122, 0.005, 0.077, -0.219, -0.034, -0.093, -0.072, -0.323, 0.175, -0.083, -0.023, 0.085, -0.285, -0.413, 0.088, -0.109, -0.112, 0.063, -0.258, -0.322, -0.011, -0.003, -0.199, -0.082, -0.174, -0.243, 0.024, -0.110, -0.096, 0.009, 0.071, 0.063, 0.098, -0.027, 0.029, -0.043, 0.015, 0.038, -0.043, 0.412, 0.137, 0.040, -0.571, -0.052, -0.272, 0.195, -0.016, -0.050, -0.542, -0.151, -0.247, 0.083, -0.115, 0.070, -0.371, -0.240, -0.059, -0.075, 0.013, -0.131, -0.206, -0.250, -0.140, 0.020, 0.131, -0.109, -0.373, -0.075, -0.136, 0.128, 0.103, -0.027, -0.488, 0.023, 0.045, 0.355, -0.031, -0.225, -0.443, -0.137, -0.144, 0.030, 0.014, -0.257, -0.252, -0.133, -0.112, -0.185, -0.072, -0.010, 0.031, -0.077, 0.012, -0.143, -0.222, 0.135, 0.245, -0.170, 0.007, 0.342, -0.087, -0.005, 0.115, 0.297, 0.336, -0.294, 0.025, 0.194, 0.236, -0.020, 0.325, -0.357, -0.023, 0.195, 0.272, -0.190, 0.012, -0.445, -0.084, 0.221, 0.703, -0.095, -0.014, -0.640, -0.129, 0.410, 0.588, -0.019, -0.211, -0.428, -0.142, 0.171, 0.412, -0.072, 0.209, -0.293, -0.216, -0.020, 0.743, -0.254, 0.270, -0.559, -0.142, -0.017, 0.969, -0.126, 0.228, -0.413, -0.041, -0.029, 0.745, 0.125, -0.237, -0.367, 0.049, 0.101, 0.236, 0.263, -0.340, -0.490, -0.007, 0.077, 0.373, -0.184, 0.078, 0.025, -0.134, 0.145, 0.595, 0.147, 0.180, -0.264, -0.031, -0.057, 0.797, 0.204, -0.112, -0.038, -0.038, 0.157, 0.472, 0.211, -0.291, -0.077, 0.048, -0.023, -0.001, 0.259, -0.094, -0.072, 0.037, -0.015, -0.017, 0.038, -0.048, -0.452, 0.109, -0.137, 0.258, 0.225, -0.111, 0.060, 0.220, -0.050, 0.040, 0.091, -0.147, 0.119, 0.167, -0.050, -0.169, 0.031, -0.113, -0.005, 0.103, 0.029, -0.245, -0.030, -0.147, -0.110, 0.054, 0.105, -0.207, -0.090, -0.117, -0.091, 0.133, -0.043, 0.304, 0.115, -0.071, 0.024, 0.174, 0.043, -0.044, -0.038, -0.110, 0.068, -0.002, -0.042, -0.050, -0.182, -0.047, -0.351, -0.068, 0.005, -0.102, -0.227, 0.114, -0.455, -0.088, -0.020, -0.129, -0.335, 0.031, -0.273, 0.031, -0.017, 0.087, 0.040, -0.047, -0.010, 0.036, 0.037, -0.188, -0.144, 0.066, -0.180, -0.052, -0.082, 0.023, -0.303, 0.035, -0.256, -0.036, -0.052, 0.191, -0.320, -0.045, -0.399, -0.061, 0.007, 0.098, -0.450, -0.069, -0.323, 0.110, -0.048, -0.107, -0.131, 0.167, 0.066, 0.079, 0.096, 0.028, -0.347, 0.127, -0.097, 0.010, 0.079, 0.078, -0.332, 0.036, -0.088, -0.052, 0.031, 0.302, -0.348, -0.132, -0.141, 0.023, 0.127, 0.220, -0.369, -0.214, -0.093, 0.071, -0.097, 0.067, -0.366, 0.251, 0.023, 0.019, 0.134, -0.054, -0.266, 0.073, -0.128, -0.176, 0.025, -0.066, -0.157, -0.179, -0.130, -0.061, -0.021, -0.163, -0.207, -0.305, -0.111, 0.061, -0.070, 0.047, -0.184, -0.213, 0.100, -0.015, -0.030, 0.000, 0.013, 0.022, 0.537, -0.004, 0.030, 0.187, 0.015, 0.073, -0.069, -0.010, 0.080, 0.223, -0.167, 0.151, 0.022, -0.096, -0.056, 0.146, -0.187, 0.165, -0.062, -0.082, 0.089, 0.204, -0.186, 0.149, -0.143, -0.115, 0.076, 0.197, -0.167, 0.177, 0.005, -0.059, 0.067, -0.034, -0.155, 0.007, 0.065, -0.064, 0.186, -0.024, -0.222, -0.025, 0.222, -0.010, -0.025, -0.199, -0.152, -0.169, 0.213, 0.048, 0.015, -0.092, -0.100, -0.064, 0.079, -0.021, 0.156, 0.050, -0.071, 0.043, 0.085, -0.050, -0.064, 0.114, -0.099, -0.076, 0.021, 0.022, -0.125, 0.015, -0.011, -0.190, 0.079, -0.027, -0.122, -0.165, 0.019, -0.223, 0.236, 0.160, -0.150, -0.239, 0.096, -0.171, 0.167, 0.010, 0.019, 0.103, 0.010, -0.110, 0.074, -0.012, -0.224, 0.138, 0.043, -0.102, 0.113, 0.051, -0.033, 0.062, 0.156, -0.076, -0.196, 0.024, 0.073, -0.164, 0.183, -0.069, 0.034, 0.011, -0.060, -0.107, 0.264, -0.075, -0.004, -0.034, 0.012, 0.073, -0.024, -0.153, -0.135, 0.049, -0.118, 0.333, -0.052, 0.031, 0.018, 0.124, 0.027, 0.264, 0.160, -0.027, -0.117, 0.013, -0.012, 0.024, 0.149, 0.061, -0.147, -0.008, -0.115, 0.005, 0.139, 0.109, -0.167, -0.060, 0.029, 0.142, 0.073, -0.057, -0.216, -0.014, 0.018, 0.041, 0.008, -0.016, -0.230, -0.004, 0.098, 0.129, -0.027, 0.026, 0.124, -0.034, 0.081, 0.206, -0.115, 0.039, 0.117, 0.045, 0.023, 0.203, -0.124, -0.046, 0.179, 0.097, -0.088, 0.141, 0.063, -0.103, 0.248, 0.132, -0.081, 0.003, 0.004, -0.080, 0.277, -0.015, 0.002, 0.027, 0.125, -0.011, -0.065, -0.077, -0.047, 0.044, 0.143, 0.107, -0.013, -0.094, -0.074, 0.058, 0.222, -0.026, 0.062, 0.038, 0.005, 0.138, 0.400, -0.100, 0.189, 0.082, -0.045, 0.051, 0.236, -0.001, 0.284, 0.033, 0.056, -0.411, 0.121, 0.043, -0.253, 0.031, -0.139, -0.322, 0.316, 0.081, -0.133, 0.033, -0.038, -0.345, 0.313, 0.083, -0.192, -0.069, 0.173, -0.223, 0.329, 0.154, 0.010, -0.055, 0.097, 0.039, 0.113, 0.119, 0.109, 0.178, -0.004, -0.480, 0.066, 0.080, 0.061, 0.192, 0.027, -0.512, -0.043, 0.173, -0.078, 0.132, 0.073, -0.587, -0.041, 0.266, -0.132, -0.031, 0.195, -0.385, -0.144, 0.147, -0.133, -0.098, 0.103, -0.173, -0.264, 0.082, 0.034, 0.193, 0.065, -0.243, -0.312, 0.192, 0.126, 0.018, 0.098, -0.205, -0.319, 0.196, -0.055, -0.016, -0.045, -0.195, -0.403, 0.194, 0.014, 0.012, -0.030, -0.259, -0.468, 0.238, -0.017, -0.032, 0.071, -0.282, -0.335, 0.039, 0.079, -0.025, -0.040, -0.031, 0.004, 0.009, -1.216, -0.139, 0.132, -0.092, 0.040, -0.128, -0.224, -0.171, 0.144, -0.201, 0.107, -0.065, 0.131, -0.019, 0.115, -0.113, 0.119, -0.049, 0.041, 0.010, 0.163, -0.215, 0.184, 0.151, -0.182, -0.096, 0.076, 0.032, -0.021, 0.265, -0.141, -0.020, -0.057, -0.179, 0.108, -0.310, 0.129, -0.102, -0.046, -0.478, -0.209, -0.223, 0.142, -0.039, -0.034, -0.612, -0.168, 0.088, 0.193, -0.048, 0.116, -0.710, 0.091, 0.360, 0.277, -0.003, -0.125, -0.095, 0.025, 0.447, 0.128, 0.129, -0.096, -0.169, 0.045, -0.150, 0.193, 0.041, 0.040, -0.547, -0.167, -0.071, 0.177, 0.113, 0.131, -0.728, -0.154, -0.000, 0.025, 0.022, 0.027, -0.613, -0.201, 0.298, 0.325, 0.010, -0.065, -0.244, -0.230, 0.447, 0.331, 0.152, -0.242, -0.174, 0.036, 0.008, 0.054, 0.091, 0.043, -0.558, -0.235, -0.028, 0.066, -0.054, 0.094, -0.860, -0.139, -0.072, -0.011, -0.112, -0.276, -0.793, -0.304, 0.253, 0.255, -0.115, -0.044, -0.476, -0.552, 0.186, 0.307, 0.174, -0.217, 0.126, -0.010, 0.119, -0.066, 0.224, -0.175, -0.127, 0.237, -0.047, -0.000, 0.121, 0.119, -0.229, 0.133, -0.143, 0.050, -0.047, -0.153, -0.461, -0.010, -0.076, 0.156, 0.008, -0.358, -0.208, -0.243, -0.075, 0.204, 0.028, -0.034, 0.036, 0.027, 0.048, -0.518, -0.032, 0.027, -0.120, -0.086, -0.054, 0.081, 0.067, -0.033, -0.181, -0.094, -0.134, 0.118, 0.124, -0.097, -0.122, -0.253, -0.041, 0.238, 0.024, -0.018, -0.185, -0.221, -0.071, -0.045, -0.011, 0.050, -0.106, -0.248, -0.019, -0.038, -0.153, 0.151, 0.156, 0.046, 0.079, -0.233, -0.142, 0.098, 0.138, 0.012, 0.072, -0.022, -0.104, 0.068, 0.168, -0.028, 0.122, 0.113, -0.047, -0.074, 0.175, 0.081, 0.096, 0.050, 0.076, 0.067, 0.090, 0.043, 0.051, 0.094, -0.047, 0.058, 0.079, 0.091, -0.021, -0.089, -0.092, 0.001, 0.112, 0.029, 0.015, 0.012, -0.089, 0.081, 0.310, 0.050, 0.084, -0.002, -0.007, 0.032, 0.314, 0.263, 0.105, -0.109, 0.061, -0.030, 0.203, 0.225, 0.054, 0.038, -0.034, -0.027, -0.054, 0.145, -0.056, 0.104, -0.083, -0.013, -0.176, 0.091, 0.115, 0.114, -0.047, 0.024, 0.007, 0.140, 0.101, 0.084, 0.001, 0.106, 0.044, 0.284, 0.159, 0.031, -0.024, 0.142, 0.058, 0.123, 0.113, 0.166, 0.070, 0.080, 0.007, -0.031, 0.079, -0.033, -0.033, 0.011, -0.173, 0.060, 0.046, 0.101, 0.020, -0.072, -0.157, 0.055, 0.060, 0.063, 0.069, -0.036, -0.041, 0.117, 0.021, 0.122, 0.092, -0.017, -0.070, 0.161, 0.044, 0.164, -0.020, -0.022, 0.009, 0.030, 0.008, -0.225, 0.014, 0.044, -0.053, -0.061, -0.019, -0.068, -0.015, -0.135, -0.086, -0.119, -0.171, -0.053, 0.046, 0.023, -0.142, -0.163, -0.111, 0.020, 0.073, -0.004, -0.259, -0.195, -0.123, -0.049, 0.040, -0.009, -0.168, -0.034, -0.079, 0.116, -0.059, 0.070, 0.071, 0.002, -0.006, -0.158, -0.009, 0.115, 0.003, 0.023, 0.020, -0.190, -0.002, -0.015, -0.025, -0.063, -0.065, -0.058, 0.021, 0.000, -0.067, -0.051, 0.031, -0.049, -0.002, -0.060, -0.050, -0.005, -0.038, 0.140, -0.104, 0.100, -0.012, -0.059, 0.084, -0.089, -0.112, 0.030, 0.051, 0.045, 0.062, -0.093, -0.067, 0.098, 0.003, 0.076, 0.084, 0.027, -0.113, 0.045, 0.047, 0.253, 0.102, 0.004, -0.085, 0.018, 0.006, 0.132, 0.113, -0.022, 0.013, 0.055, -0.193, -0.015, 0.028, 0.102, -0.130, 0.136, -0.117, 0.048, 0.165, 0.011, -0.057, 0.131, -0.002, 0.085, 0.190, 0.168, -0.068, 0.035, 0.104, 0.155, 0.155, 0.114, -0.001, 0.007, 0.098, 0.171, 0.050, -0.000, -0.024, -0.006, 0.003, -0.130, 0.056, 0.081, -0.081, 0.019, -0.089, -0.136, 0.018, 0.035, -0.094, -0.024, 0.104, -0.033, 0.032, 0.123, -0.106, -0.040, 0.148, 0.031, 0.042, 0.026, -0.053, 0.034, 0.081, 0.189, -0.027, 0.018, -0.040, 0.003, 0.044, -0.019, 0.038, 0.023, 0.005, -0.014, 0.081, 0.300, -0.235, -0.030, -0.084, 0.203, 0.231, 0.270, -0.255, -0.373, -0.206, 0.117, 0.017, 0.237, -0.097, 0.118, -0.104, -0.050, -0.047, 0.203, 0.009, 0.105, -0.026, -0.013, -0.206, 0.342, 0.085, 0.067, -0.003, 0.117, 0.268, 0.449, -0.154, -0.576, 0.011, -0.012, 0.205, 0.542, -0.058, -0.462, -0.328, -0.027, 0.116, 0.264, 0.248, -0.076, -0.190, 0.010, -0.099, 0.344, 0.311, -0.079, -0.097, -0.164, -0.324, 0.358, 0.140, 0.143, -0.140, 0.172, 0.289, 0.610, -0.088, -0.530, 0.013, -0.012, 0.174, 0.262, 0.143, -0.028, -0.156, 0.031, 0.141, 0.018, 0.205, 0.173, -0.069, -0.045, -0.199, -0.275, 0.384, -0.090, -0.153, -0.125, -0.404, -0.061, 0.054, 0.174, -0.064, 0.242, 0.202, 0.514, 0.179, -0.236, -0.006, -0.077, 0.381, 0.033, -0.103, 0.192, -0.091, -0.176, -0.213, -0.351, 0.282, 0.334, -0.097, -0.019, -0.305, -0.709, 0.027, 0.201, 0.141, -0.363, -0.396, -0.446, -0.179, 0.195, 0.186, 0.222, 0.116, -0.027, 0.180, 0.046, 0.128, -0.162, 0.109, -0.257, -0.095, 0.383, 0.182, -0.263, 0.094, -0.462, 0.166, 0.211, 0.006, 0.105, -0.015, -0.414, -0.224, 0.275, 0.276, -0.207, -0.152, -0.636, -0.175, 0.500, 0.011, 0.037, 0.034, -0.005, -0.033, 0.418, 0.012, -0.092, -0.077, 0.022, 0.106, -0.234, 0.012, -0.034, -0.073, 0.010, 0.152, -0.192, -0.047, 0.073, -0.062, 0.114, 0.106, -0.146, -0.043, 0.047, -0.062, 0.130, 0.166, -0.224, -0.022, 0.111, 0.033, -0.000, 0.159, -0.293, -0.003, 0.176, 0.201, 0.058, 0.138, -0.019, -0.076, 0.067, 0.185, 0.073, 0.227, -0.003, -0.057, 0.045, 0.083, 0.101, 0.241, 0.046, -0.031, 0.060, 0.064, 0.118, 0.263, 0.164, 0.051, 0.094, -0.029, 0.054, 0.135, 0.044, 0.029, 0.013, 0.139, -0.189, 0.001, 0.059, 0.004, 0.072, 0.224, -0.100, 0.010, 0.139, 0.059, -0.068, 0.175, -0.005, 0.005, 0.144, 0.014, 0.060, 0.172, 0.045, 0.036, 0.080, 0.051, 0.137, 0.115, 0.164, 0.131, -0.049, 0.011, -0.171, 0.073, -0.181, -0.154, 0.081, -0.040, -0.075, 0.023, -0.190, -0.273, 0.235, 0.064, -0.040, 0.103, -0.115, -0.286, 0.282, -0.017, -0.032, 0.202, -0.085, -0.171, 0.260, 0.001, 0.074, 0.152, -0.046, 0.021, 0.030, -0.025, -0.205, -0.153, -0.042, -0.104, 0.062, -0.015, -0.069, -0.183, 0.007, -0.242, 0.116, -0.100, -0.002, -0.230, -0.031, -0.242, 0.081, 0.038, -0.048, -0.192, -0.017, -0.247, 0.067, -0.025, 0.054, 0.017, -0.070, -0.132, 0.073, 0.013, -0.027, 0.039, 0.031, 0.040, 0.545, -0.036, -0.041, -0.066, -0.159, 0.048, 0.147, -0.061, -0.040, -0.040, -0.054, 0.047, 0.203, -0.004, 0.141, -0.000, 0.021, -0.062, 0.147, 0.095, -0.063, -0.009, -0.001, 0.016, 0.136, 0.122, 0.005, 0.067, 0.034, 0.019, 0.030, -0.064, -0.146, -0.035, -0.031, -0.042, 0.307, 0.026, -0.032, -0.116, 0.058, -0.032, 0.295, 0.067, -0.083, -0.054, 0.066, -0.044, 0.211, 0.039, -0.066, 0.017, -0.005, 0.109, 0.218, -0.017, 0.136, 0.125, 0.018, 0.057, -0.028, -0.073, -0.102, -0.063, 0.047, 0.056, 0.202, -0.026, 0.068, -0.020, 0.104, 0.115, 0.115, -0.097, 0.154, -0.016, 0.038, 0.138, -0.147, -0.118, 0.136, 0.051, 0.083, 0.043, -0.248, -0.109, 0.089, 0.039, 0.168, -0.001, -0.116, 0.057, -0.063, -0.120, 0.004, -0.034, 0.001, 0.153, -0.056, -0.017, -0.005, -0.004, 0.156, 0.089, -0.107, -0.061, 0.085, -0.053, 0.106, 0.119, -0.235, -0.036, 0.196, -0.027, 0.095, 0.121, -0.017, 0.066, 0.303, 0.119, 0.085, 0.149, -0.078, -0.333, 0.252, 0.147, 0.110, 0.126, -0.046, -0.349, 0.166, 0.143, 0.192, 0.044, 0.097, -0.080, -0.005, 0.116, 0.221, -0.022, 0.238, 0.180, -0.080, 0.263, 0.035, -0.029, 0.242, 0.214, -0.005, 0.052, 0.039, -0.002, -0.042, 0.041, 0.018, -0.001, 0.148, -0.100, 0.038, 0.209, -0.282, 0.027, -0.171, -0.071, 0.027, 0.194, -0.188, 0.041, -0.104, -0.081, -0.192, -0.127, -0.142, 0.190, 0.040, -0.109, -0.004, -0.485, -0.229, 0.169, 0.121, 0.026, -0.083, -0.519, -0.072, 0.015, 0.217, 0.023, -0.121, 0.162, 0.080, -0.013, -0.069, 0.137, 0.024, -0.017, 0.052, 0.002, 0.069, 0.078, -0.084, -0.245, -0.021, -0.008, 0.212, 0.128, 0.080, -0.393, -0.316, 0.012, 0.121, 0.020, -0.091, -0.193, -0.279, 0.041, 0.101, -0.155, 0.266, -0.105, 0.133, 0.108, -0.221, -0.179, 0.217, -0.247, -0.013, 0.313, 0.054, -0.194, 0.162, -0.326, -0.362, 0.253, 0.369, -0.198, 0.269, -0.405, -0.642, 0.258, 0.199, -0.260, 0.172, -0.281, -0.636, 0.109, 0.018, 0.053, -0.098, 0.034, 0.630, -0.134, -0.428, 0.210, -0.297, -0.046, 0.627, 0.053, -0.623, 0.236, -0.288, -0.077, 0.618, -0.061, -0.619, 0.205, -0.240, -0.375, 0.439, -0.154, -0.368, 0.033, -0.498, -0.549, 0.385, -0.045, -0.130, 0.146, 0.133, -0.067, 0.250, 0.189, 0.402, 0.225, 0.032, -0.150, 0.293, 0.243, 0.333, 0.110, -0.058, -0.159, 0.210, 0.254, 0.400, 0.176, 0.209, -0.142, 0.111, 0.299, 0.359, 0.066, 0.042, -0.033, 0.129, 0.245, 0.173, -0.042, 0.047, 0.026, 0.000, -0.035, -1.196, 0.114, -0.027, -0.080, -0.274, 0.056, 0.163, -0.023, -0.067, -0.035, -0.154, -0.134, 0.009, -0.060, -0.045, 0.059, -0.060, -0.189, 0.349, 0.089, -0.004, 0.151, -0.033, -0.156, 0.416, 0.170, 0.071, 0.100, -0.040, -0.069, 0.385, -0.020, -0.016, -0.115, -0.174, -0.022, 0.080, -0.032, -0.010, 0.276, 0.211, -0.215, 0.044, -0.009, -0.041, 0.200, 0.360, -0.146, 0.166, 0.041, -0.103, 0.041, 0.373, 0.022, 0.119, -0.041, 0.114, 0.196, 0.202, -0.008, 0.232, 0.026, 0.031, 0.228, 0.306, -0.021, -0.298, 0.021, -0.037, 0.248, 0.554, -0.113, -0.122, 0.023, -0.063, 0.066, 0.337, -0.072, -0.013, -0.053, -0.036, -0.435, 0.643, -0.097, -0.314, 0.053, 0.218, 0.130, 0.287, -0.182, 0.103, -0.027, -0.005, -0.028, 0.515, -0.302, -0.367, -0.053, 0.032, -0.070, 0.077, -0.060, -0.332, -0.058, -0.055, -0.111, -0.051, 0.062, -0.337, -0.120, -0.257, -0.315, 0.449, -0.208, -0.490, 0.064, -0.008, -0.003, 0.064, 0.106, 0.040, 0.055, 0.210, -0.206, 0.318, -0.189, -0.255, -0.216, 0.051, -0.164, -0.019, -0.105, -0.277, -0.311, -0.242, -0.163, -0.012, 0.042, -0.536, -0.175, -0.121, -0.248, 0.245, 0.169, -0.340, 0.257, 0.102, 0.013, -0.172, 0.108, 0.444, 0.034, 0.034, 0.026, -0.018, 0.045, -0.008, -0.070, 0.002, -0.090, -0.157, -0.043, 0.026, -0.056, -0.137, -0.111, 0.029, -0.051, 0.089, -0.047, 0.039, 0.073, 0.118, 0.012, -0.097, -0.109, 0.105, 0.079, 0.049, 0.121, -0.109, -0.123, 0.011, 0.209, -0.046, 0.249, -0.051, -0.028, 0.052, -0.223, -0.294, -0.271, 0.006, -0.024, -0.081, -0.265, -0.105, -0.174, 0.168, 0.024, 0.046, -0.212, 0.038, -0.001, -0.134, -0.111, 0.135, -0.244, 0.069, 0.134, -0.195, -0.099, 0.213, -0.094, -0.046, 0.249, -0.121, 0.011, 0.111, -0.281, -0.082, -0.213, 0.065, -0.016, -0.096, -0.062, -0.289, -0.200, 0.143, 0.038, 0.007, -0.216, -0.218, -0.004, -0.033, -0.057, 0.116, -0.313, -0.135, -0.005, -0.283, -0.116, 0.202, -0.186, -0.068, 0.166, -0.333, 0.038, 0.294, -0.154, 0.003, -0.139, -0.070, 0.074, -0.040, -0.114, -0.261, -0.197, 0.141, 0.085, -0.045, -0.048, -0.341, -0.003, 0.130, 0.092, -0.009, 0.123, -0.268, -0.146, -0.069, -0.004, 0.018, -0.001, -0.202, -0.051, -0.284, -0.006, 0.267, -0.219, 0.047, -0.045, 0.060, -0.093, 0.003, -0.079, -0.200, -0.029, 0.070, -0.051, -0.081, -0.005, -0.110, 0.070, 0.137, -0.002, -0.009, 0.114, -0.024, -0.034, -0.012, 0.016, 0.070, 0.082, 0.007, 0.003, -0.167, -0.005, -0.009, 0.043, -0.026, 0.046, -0.444, 0.158, -0.176, -0.094, -0.011, -0.198, 0.146, 0.086, -0.124, -0.131, -0.019, -0.188, -0.134, 0.047, -0.039, -0.135, -0.011, -0.050, -0.117, 0.018, -0.013, -0.159, -0.052, 0.093, -0.230, -0.031, 0.014, 0.039, -0.091, 0.003, -0.184, 0.068, -0.019, 0.022, -0.003, -0.086, -0.020, 0.050, -0.077, -0.195, -0.121, -0.021, -0.143, 0.052, -0.043, -0.151, -0.264, 0.145, -0.260, -0.084, 0.070, -0.108, -0.211, 0.166, -0.397, -0.140, 0.079, 0.214, -0.124, 0.132, -0.332, 0.040, 0.107, -0.065, -0.141, 0.033, 0.122, -0.066, 0.115, -0.215, -0.197, 0.109, 0.099, -0.046, 0.109, -0.077, -0.262, 0.158, 0.006, 0.007, -0.042, 0.013, -0.093, 0.140, -0.179, 0.032, 0.013, 0.247, -0.036, 0.157, -0.203, -0.127, 0.049, -0.019, -0.185, 0.078, 0.116, -0.067, 0.085, 0.009, 0.112, 0.164, 0.225, -0.044, 0.063, 0.046, 0.010, 0.102, 0.235, 0.036, 0.021, 0.060, 0.195, 0.200, 0.042, 0.151, 0.122, 0.135, 0.223, 0.118, -0.034, -0.020, 0.042, 0.055, 0.122, -0.131, 0.155, -0.066, 0.016, 0.211, 0.216, -0.113, 0.268, -0.069, 0.035, 0.325, 0.188, -0.041, 0.167, 0.008, 0.023, 0.288, 0.243, 0.049, 0.044, -0.014, 0.076, 0.250, 0.206, 0.116, -0.011, -0.012, 0.004, -0.032, -0.012, 0.001, -0.335, -0.085, -0.068, 0.065, -0.151, -0.132, 0.158, -0.056, -0.005, -0.051, -0.106, -0.224, 0.139, 0.065, -0.055, -0.072, -0.063, -0.193, 0.101, 0.072, -0.032, -0.120, -0.061, -0.055, -0.001, -0.076, 0.017, -0.133, -0.132, 0.018, -0.044, -0.085, -0.168, 0.071, -0.045, -0.088, 0.089, -0.070, 0.036, -0.049, -0.084, -0.217, -0.030, -0.083, -0.026, -0.061, 0.016, -0.093, -0.158, -0.081, 0.032, -0.100, 0.043, 0.005, -0.233, -0.105, 0.086, -0.025, 0.065, 0.034, -0.211, -0.017, -0.021, 0.042, -0.089, -0.014, 0.025, -0.006, 0.128, -0.093, -0.082, -0.073, 0.057, 0.003, 0.030, 0.059, -0.011, 0.046, -0.011, -0.060, -0.051, 0.120, -0.034, 0.094, -0.181, 0.024, 0.018, 0.103, -0.000, 0.085, -0.108, 0.010, 0.060, -0.049, -0.105, -0.035, 0.130, 0.043, 0.150, -0.174, -0.097, 0.004, 0.009, 0.015, 0.097, -0.072, -0.095, 0.126, -0.185, -0.033, -0.046, 0.036, 0.037, 0.164, -0.205, 0.004, 0.061, 0.030, 0.017, 0.109, -0.022, 0.077, -0.024, 0.043, -0.090, -0.014, 0.083, 0.073, 0.075, -0.098, -0.041, -0.065, 0.026, 0.057, 0.030, 0.037, 0.016, 0.066, 0.039, 0.027, -0.059, -0.071, 0.044, 0.151, 0.022, 0.124, -0.049, 0.049, 0.027, 0.074, 0.063, -0.017, 0.041, 0.025, 0.016, -0.004, 0.231, -0.295, 0.196, 0.005, -0.034, -0.181, -0.652, -0.100, -0.200, 0.128, -0.008, 0.008, -0.121, -0.039, -0.050, -0.143, 0.041, 0.174, 0.063, 0.108, 0.176, -0.705, 0.167, 0.285, 0.292, 0.008, -0.030, -0.449, 0.175, 0.320, 0.273, -0.139, 0.208, -0.081, 0.246, -0.296, -0.595, -0.026, 0.101, -0.162, 0.243, -0.164, -0.210, 0.046, 0.097, -0.462, -0.032, 0.285, 0.246, 0.212, 0.079, -0.766, 0.087, 0.418, 0.448, 0.105, -0.153, -0.330, 0.098, 0.438, 0.269, -0.013, 0.252, -0.134, 0.492, -0.357, -0.212, 0.080, 0.118, -0.449, 0.394, -0.270, 0.141, 0.106, -0.011, -0.398, 0.082, 0.112, 0.307, 0.195, -0.010, -0.677, -0.265, 0.587, 0.402, 0.149, -0.293, -0.539, -0.157, 0.374, 0.399, 0.164, 0.124, -0.130, 0.517, -0.175, -0.030, 0.109, 0.142, -0.474, 0.294, -0.239, -0.097, -0.086, -0.162, -0.550, -0.058, 0.346, -0.014, 0.003, -0.005, -0.812, -0.589, 0.479, 0.359, 0.139, -0.274, -0.438, -0.238, 0.365, 0.369, 0.226, 0.073, -0.178, 0.030, 0.045, 0.157, 0.194, 0.246, -0.791, -0.106, 0.066, -0.216, -0.135, -0.087, -0.930, -0.332, 0.321, -0.009, -0.088, -0.047, -0.461, -0.514, 0.390, 0.081, 0.108, -0.320, -0.024, -0.008, 0.202, -0.024, -0.031, 0.032, -0.032, 0.024, 0.008, 0.130, -0.059, -0.019, -0.085, -0.041, 0.000, -0.135, -0.062, 0.033, 0.116, -0.015, 0.184, 0.013, 0.031, 0.048, 0.021, 0.042, 0.165, 0.139, -0.020, 0.110, -0.076, -0.052, 0.114, 0.172, 0.014, 0.047, -0.149, -0.033, 0.139, 0.078, -0.016, 0.075, -0.064, 0.012, 0.030, -0.115, -0.044, 0.018, 0.075, 0.170, 0.063, 0.024, -0.003, 0.010, 0.025, 0.185, 0.114, 0.199, 0.068, -0.084, 0.001, 0.171, 0.006, 0.400, -0.024, -0.058, 0.060, 0.003, 0.054, 0.312, -0.036, 0.051, 0.036, -0.038, 0.040, -0.145, -0.137, 0.049, 0.226, -0.134, 0.024, 0.048, -0.138, 0.080, 0.121, 0.154, -0.009, 0.144, -0.147, 0.016, 0.015, 0.232, -0.016, 0.336, -0.057, 0.030, 0.141, 0.153, -0.022, 0.214, -0.019, -0.086, -0.022, -0.118, -0.010, -0.169, -0.072, -0.180, -0.011, -0.104, -0.049, -0.212, -0.003, -0.109, 0.004, 0.019, -0.216, -0.052, 0.015, -0.048, -0.003, -0.040, -0.235, 0.027, -0.016, 0.044, 0.118, -0.110, -0.205, 0.023, 0.057, -0.058, 0.073, -0.058, 0.111, -0.107, -0.035, -0.048, 0.069, -0.011, 0.133, -0.151, -0.041, -0.060, 0.067, 0.053, 0.078, -0.112, -0.011, 0.011, 0.102, 0.102, -0.016, -0.044, -0.013, 0.004, -0.001, 0.076, -0.100, -0.031, 0.048, -0.002, 0.026, -0.006, 0.031, -0.244, 0.047, -0.054, -0.016, 0.046, 0.125, 0.024, 0.021, -0.050, -0.078, -0.031, 0.143, 0.012, -0.006, 0.032, -0.141, 0.090, 0.036, -0.075, -0.052, 0.101, -0.073, 0.079, 0.047, -0.138, -0.083, 0.046, -0.060, 0.096, 0.121, -0.121, 0.023, -0.080, 0.021, 0.026, 0.072, 0.067, -0.113, -0.022, -0.140, 0.074, 0.089, 0.166, -0.001, 0.009, -0.052, 0.092, 0.021, 0.040, 0.025, 0.108, -0.183, -0.005, 0.020, -0.112, -0.022, 0.019, -0.203, -0.057, 0.002, -0.154, -0.036, -0.018, -0.065, 0.138, -0.019, 0.101, 0.076, -0.053, -0.015, 0.054, -0.028, 0.158, 0.039, -0.027, -0.058, -0.090, -0.038, -0.020, 0.012, -0.004, -0.229, -0.186, -0.074, -0.157, 0.086, 0.037, -0.211, -0.149, -0.094, -0.089, -0.108, -0.029, -0.033, 0.067, -0.164, 0.205, 0.027, 0.003, -0.022, -0.003, -0.107, 0.168, 0.061, -0.074, 0.144, -0.091, -0.160, -0.056, 0.057, -0.024, 0.165, -0.143, -0.211, -0.298, 0.061, 0.026, 0.030, -0.270, -0.073, -0.148, 0.062, -0.076, 0.009, 0.222, -0.164, 0.107, 0.061, -0.046, 0.184, 0.079, -0.253, 0.028, -0.010, -0.115, 0.232, -0.120, -0.183, -0.105, -0.007, -0.085, 0.071, -0.177, -0.181, -0.270, -0.015, 0.031, -0.063, -0.228, -0.093, -0.140, -0.032, 0.013, -0.041, -0.048, 0.009, 0.263, 0.024, 0.010, -0.076, -0.026, -0.017, 0.051, 0.074, 0.017, 0.026, -0.032, -0.050, 0.128, 0.075, 0.005, 0.110, -0.156, -0.052, 0.046, 0.038, 0.012, 0.054, -0.134, -0.055, 0.016, 0.069, 0.027, 0.044, -0.096, -0.028, 0.076, 0.061, -0.002, -0.012, -0.096, -0.010, -0.038, -0.001, 0.023, 0.040, 0.000, -0.084, 0.152, 0.046, -0.096, -0.063, 0.131, -0.061, -0.016, 0.040, 0.006, -0.020, 0.073, -0.053, 0.020, 0.008, 0.047, -0.005, 0.035, -0.000, 0.093, -0.006, -0.080, 0.112, -0.096, 0.033, -0.051, 0.001, 0.013, 0.142, 0.036, -0.064, -0.057, -0.054, -0.112, -0.028, 0.138, -0.026, -0.186, -0.062, -0.047, 0.064, -0.007, 0.028, 0.008, -0.052, -0.018, -0.083, -0.029, -0.012, -0.118, 0.015, 0.065, -0.205, -0.051, -0.004, 0.006, 0.071, 0.196, -0.208, -0.120, 0.005, 0.045, 0.028, 0.049, -0.162, 0.099, -0.072, 0.137, 0.068, 0.007, -0.011, -0.038, 0.070, -0.005, 0.040, -0.078, -0.028, 0.062, 0.012, -0.088, -0.145, 0.045, 0.025, -0.039, 0.025, 0.007, 0.009, 0.123, -0.031, 0.073, -0.010, 0.009, 0.025, -0.140, 0.010, 0.124, -0.009, 0.046, -0.027, 0.054, 0.144, -0.035, 0.055, -0.037, -0.004, -0.034, 0.124, 0.035, 0.066, -0.102, 0.049, 0.033, 0.005, 0.016, -0.047, -0.018, 0.028, -0.177, 0.424, 0.131, 0.014, -0.112, 0.015, -0.109, 0.304, 0.151, -0.158, -0.338, 0.021, -0.117, 0.012, 0.130, -0.080, -0.107, 0.011, -0.060, -0.174, 0.212, -0.279, 0.076, 0.011, 0.059, -0.403, 0.039, -0.241, 0.093, -0.078, -0.163, 0.541, 0.192, 0.228, -0.460, -0.111, 0.116, 0.344, 0.272, 0.069, -0.553, -0.145, 0.076, -0.017, 0.276, 0.023, -0.160, -0.072, -0.067, -0.204, 0.132, -0.022, 0.089, 0.071, -0.053, -0.477, 0.238, -0.103, 0.114, -0.026, -0.092, 0.422, 0.139, 0.416, -0.396, -0.009, 0.273, 0.273, 0.354, 0.057, -0.403, -0.110, 0.085, 0.026, 0.294, -0.089, -0.172, 0.031, 0.018, -0.136, -0.043, 0.023, 0.197, 0.146, -0.244, -0.463, -0.090, 0.024, 0.257, -0.088, -0.142, 0.465, -0.077, 0.269, -0.278, -0.033, 0.093, 0.251, 0.204, -0.015, -0.298, 0.005, 0.006, -0.187, 0.161, -0.155, 0.016, 0.023, -0.009, -0.154, -0.242, -0.066, 0.368, 0.144, -0.196, -0.562, -0.295, 0.070, 0.612, -0.068, -0.108, 0.335, -0.087, 0.098, -0.071, -0.049, 0.071, 0.063, 0.337, -0.096, -0.066, 0.007, 0.161, -0.233, 0.152, -0.231, 0.040, 0.052, -0.042, -0.276, -0.053, 0.070, 0.319, 0.182, -0.158, -0.155, -0.248, 0.089, 0.641, 0.048, -0.021, -0.027, -0.002, -0.042, 1.334, 0.167, 0.062, -0.584, 0.397, -0.261, 0.109, 0.090, 0.228, -0.742, 0.016, -0.120, 0.264, -0.054, 0.124, -0.819, -0.135, -0.018, 0.097, 0.106, -0.039, -0.357, 0.275, -0.031, 0.058, 0.083, -0.056, 0.024, 0.469, 0.049, -0.061, 0.270, 0.005, -0.652, -0.082, -0.119, 0.223, 0.223, -0.213, -0.817, -0.312, -0.278, 0.072, -0.040, -0.355, -0.546, -0.048, -0.034, -0.068, -0.075, -0.128, 0.066, -0.087, 0.120, -0.017, -0.197, 0.092, 0.149, -0.038, 0.099, -0.032, 0.009, 0.156, 0.023, 0.193, -0.003, 0.289, -0.046, -0.043, -0.121, -0.068, 0.188, 0.637, -0.045, 0.058, 0.232, -0.254, -0.019, 0.838, 0.140, -0.030, 0.332, -0.186, -0.134, 0.117, -0.174, 0.161, 0.396, 0.060, 0.118, -0.158, -0.025, -0.122, 0.342, 0.059, -0.040, -0.254, -0.050, -0.163, 0.237, -0.258, -0.032, -0.423, -0.144, -0.229, 0.114, -0.581, -0.026, -0.260, -0.176, -0.260, 0.460, -0.067, 0.116, -0.038, -0.051, 0.272, 0.349, 0.354, -0.116, -0.095, 0.103, -0.111, 0.010, 0.101, 0.017, -0.061, 0.088, 0.263, 0.152, -0.088, -0.072, -0.269, -0.040, 0.161, 0.014, -0.325, 0.009, -0.424, -0.118, 0.153, 0.134, -0.357, 0.107, -0.158, -0.042, 0.395, 0.629, -0.501, 0.299, 0.216, 0.002, 0.001, -0.021, -0.015, -0.003, 0.008, -0.054, 0.057, -0.095, 0.058, 0.104, -0.010, 0.052, 0.022, -0.041, 0.007, 0.039, 0.183, 0.086, -0.111, 0.040, 0.047, 0.014, 0.073, 0.164, -0.098, 0.036, -0.059, -0.130, -0.072, 0.035, 0.038, -0.007, -0.088, -0.114, -0.189, -0.013, 0.006, -0.070, 0.159, 0.076, 0.093, 0.107, 0.031, -0.000, -0.026, 0.108, 0.207, 0.072, -0.086, 0.088, 0.058, 0.093, 0.172, 0.184, -0.159, 0.173, -0.260, -0.035, 0.114, 0.109, -0.024, -0.019, -0.223, -0.130, -0.089, 0.109, 0.114, -0.122, 0.184, 0.045, 0.300, 0.076, 0.106, -0.154, 0.127, 0.080, 0.334, 0.058, -0.013, -0.027, 0.142, 0.173, 0.273, 0.107, -0.043, -0.108, 0.189, 0.056, 0.088, 0.141, -0.154, -0.172, -0.033, 0.014, -0.037, 0.061, 0.097, -0.253, 0.292, 0.188, 0.161, -0.007, 0.202, -0.240, 0.345, 0.119, 0.173, -0.024, 0.072, -0.151, 0.224, 0.187, 0.179, 0.024, 0.003, 0.017, 0.193, 0.075, 0.134, 0.105, -0.130, 0.029, -0.048, -0.047, 0.004, -0.017, 0.109, -0.058, 0.216, 0.108, -0.054, -0.012, 0.043, -0.010, 0.252, 0.112, -0.097, -0.102, -0.092, -0.113, 0.253, 0.131, -0.025, -0.051, -0.098, 0.000, 0.288, 0.050, 0.054, 0.031, -0.158, -0.062, 0.167, 0.033, 0.119, 0.008, 0.020, -0.029, -0.039, 0.004, -0.372, -0.218, 0.156, -0.054, -0.182, 0.242, 0.151, -0.105, -0.040, -0.205, -0.023, 0.335, 0.282, -0.010, 0.002, -0.355, 0.013, 0.233, 0.542, -0.019, 0.047, -0.431, 0.050, 0.149, 0.442, 0.161, -0.177, -0.419, 0.210, 0.187, 0.261, -0.005, -0.008, 0.136, -0.228, -0.225, -0.220, -0.044, 0.048, -0.083, -0.342, -0.151, -0.407, 0.020, 0.136, -0.175, -0.264, -0.003, -0.454, -0.065, 0.319, -0.267, -0.348, 0.252, -0.439, -0.146, 0.109, -0.228, -0.263, 0.268, -0.183, 0.097, -0.030, 0.086, 0.236, -0.323, 0.318, 0.037, -0.072, 0.064, 0.208, -0.351, -0.070, -0.097, -0.109, -0.069, 0.022, -0.099, -0.264, -0.081, -0.034, -0.073, -0.367, 0.082, -0.414, -0.104, -0.158, -0.209, -0.460, 0.094, -0.319, 0.054, 0.079, 0.060, 0.045, -0.146, 0.006, 0.056, 0.045, 0.057, 0.060, -0.136, -0.087, 0.094, 0.077, -0.205, -0.062, -0.065, -0.205, 0.103, -0.053, -0.364, -0.209, 0.106, -0.268, 0.033, -0.099, -0.329, -0.242, 0.153, -0.143, 0.171, -0.016, -0.136, 0.099, -0.169, 0.113, 0.144, -0.014, -0.076, 0.029, -0.182, 0.098, 0.048, 0.240, -0.236, -0.178, -0.138, -0.098, -0.027, 0.075, -0.335, -0.218, -0.032, -0.043, -0.006, -0.119, -0.348, -0.292, -0.079, -0.103, -0.026, -0.030, 0.035, -0.039, 0.038, -0.262, -0.082, 0.066, -0.371, -0.203, -0.126, -0.050, -0.036, -0.079, -0.147, -0.034, -0.059, 0.075, -0.018, -0.090, -0.402, 0.160, 0.138, -0.115, 0.075, 0.134, -0.282, 0.005, 0.103, 0.002, -0.173, -0.014, -0.077, -0.291, 0.021, 0.189, -0.006, 0.077, -0.309, -0.281, -0.210, 0.061, -0.064, 0.026, -0.431, -0.227, -0.011, 0.236, -0.034, 0.013, -0.840, 0.038, 0.152, 0.211, 0.076, -0.081, -0.428, -0.136, 0.015, 0.019, -0.017, 0.003, -0.144, -0.280, -0.040, -0.027, 0.103, 0.127, -0.444, -0.125, -0.386, 0.178, 0.268, -0.135, -0.363, -0.058, -0.275, 0.278, 0.133, -0.184, -0.204, -0.018, 0.018, 0.075, 0.015, -0.275, 0.191, -0.054, 0.044, 0.117, -0.073, 0.008, 0.200, -0.004, -0.044, 0.055, -0.088, 0.127, -0.148, 0.284, -0.201, -0.103, 0.030, 0.056, -0.109, 0.111, 0.273, 0.266, 0.015, 0.291, 0.522, -0.058, 0.322, 0.217, 0.048, -0.036, 0.825, -0.009, 0.003, -0.339, -0.025, 0.226, 0.781, 0.142, 0.042, -0.385, 0.098, 0.212, 0.044, 0.083, -0.155, -0.259, 0.030, 0.063, -0.003, -0.152, 0.089, -0.214, -0.139, -0.078, 0.280, -0.333, -0.069, -0.222, -0.195, -0.182, 0.637, 0.002, 0.001, -0.218, -0.072, 0.267, 0.695, 0.427, 0.077, -0.092, 0.002, 0.028, 0.038, 0.037, 0.025, -0.715, -0.147, -0.049, 0.074, 0.386, -0.065, -0.238, -0.049, -0.299, 0.098, 0.415, -0.060, -0.077, 0.024, 0.017, -0.041, 0.167, -0.032, 0.072, 0.062, 0.136, -0.077, 0.304, -0.014, 0.106, 0.015, -0.151, -0.107, 0.291, 0.139, -0.038, 0.017, -0.038, -0.029, 0.296, -0.005, 0.154, -0.049, 0.031, -0.131, 0.328, 0.157, 0.174, 0.025, 0.087, -0.107, 0.244, 0.194, 0.292, 0.113, 0.057, 0.046, 0.372, 0.250, 0.209, 0.043, -0.326, -0.278, 0.321, 0.300, 0.058, 0.164, 0.296, -0.045, 0.003, -0.064, -0.073, 0.109, 0.021, -0.080, -0.054, -0.102, -0.090, 0.046, -0.060, 0.136, -0.089, 0.008, -0.085, -0.210, 0.066, -0.054, -0.157, 0.349, -0.230, -0.218, -0.083, -0.271, 0.222, 0.389, -0.039, -0.046, -0.015, -0.227, -0.227, 0.023, -0.243, 0.039, -0.084, -0.222, -0.341, 0.105, -0.115, -0.013, 0.233, -0.395, -0.386, 0.043, 0.014, -0.221, 0.389, -0.375, -0.304, 0.109, 0.007, -0.203, 0.238, -0.228, -0.231, 0.289, -0.010, 0.000, 0.035, -0.294, -0.153, 0.121, -0.199, -0.035, 0.055, -0.426, 0.020, 0.139, -0.066, -0.092, -0.060, -0.446, -0.020, -0.078, -0.068, -0.105, -0.132, -0.369, -0.144, 0.066, -0.133, -0.183, -0.080, -0.469, -0.137, -0.025, -0.352, 0.033, -0.031, -0.001, 0.036, -0.032, 1.094, -0.049, -0.088, -0.041, 0.089, 0.093, -0.203, -0.042, 0.107, 0.144, 0.140, 0.060, -0.284, -0.068, 0.093, 0.206, 0.112, 0.065, -0.127, -0.080, -0.007, 0.130, -0.014, 0.098, 0.118, -0.030, 0.014, -0.003, 0.102, 0.054, 0.146, 0.004, 0.095, -0.182, 0.053, 0.082, -0.016, 0.057, 0.192, -0.043, 0.069, -0.105, -0.107, 0.022, 0.078, -0.025, 0.002, -0.060, -0.021, -0.041, -0.034, 0.015, -0.081, -0.067, 0.174, -0.043, -0.112, 0.027, 0.116, -0.139, 0.134, 0.025, -0.058, -0.197, -0.088, 0.055, 0.002, 0.120, 0.011, -0.217, -0.037, -0.117, -0.015, 0.057, -0.073, -0.258, -0.081, -0.054, 0.165, 0.023, -0.076, -0.194, -0.097, -0.039, 0.275, 0.067, -0.058, -0.045, -0.006, -0.134, 0.266, -0.079, -0.141, 0.026, -0.345, 0.083, 0.020, 0.027, -0.100, 0.000, -0.165, -0.078, 0.103, 0.047, -0.157, -0.115, -0.179, 0.016, 0.131, 0.124, -0.029, -0.201, -0.089, -0.037, 0.141, 0.148, -0.004, -0.083, -0.073, -0.070, 0.028, -0.045, -0.177, -0.059, -0.060, 0.064, -0.004, 0.020, -0.013, -0.001, 0.013, -0.056, 0.091, 0.003, -0.032, -0.045, -0.023, -0.072, 0.050, -0.025, 0.055, 0.021, 0.042, -0.016, 0.034, 0.044, 0.036, 0.093, 0.117, -0.041, -0.169, 0.022, 0.034, 0.036, 0.045, 0.036, 0.443, 0.048, 0.197, -0.234, 0.078, -0.188, -0.052, -0.029, 0.071, -0.067, 0.145, -0.103, -0.116, 0.031, -0.157, 0.324, 0.131, -0.111, -0.381, -0.094, -0.046, 0.224, 0.199, -0.274, -0.331, 0.039, 0.238, -0.219, 0.604, -0.219, -0.293, -0.110, 0.211, 0.162, 0.135, -0.093, -0.014, -0.150, -0.043, 0.377, 0.178, 0.016, -0.321, -0.124, -0.120, 0.379, 0.276, -0.162, -0.366, 0.082, -0.188, 0.278, 0.673, -0.264, -0.405, 0.059, -0.046, -0.093, 0.288, 0.148, -0.283, -0.075, 0.199, 0.400, 0.188, 0.009, 0.032, -0.141, -0.026, 0.225, 0.352, 0.060, 0.035, 0.026, -0.281, 0.153, 0.730, 0.075, 0.166, -0.027, 0.107, -0.094, 0.395, 0.323, 0.074, 0.093, 0.387, 0.774, -0.227, 0.281, -0.068, -0.079, 0.049, -0.162, 0.051, 0.013, 0.387, 0.031, -0.305, -0.202, 0.189, 0.154, 0.389, 0.170, -0.053, -0.224, 0.135, 0.052, 0.304, 0.095, 0.346, 0.413, -0.384, 0.160, 0.333, -0.037, -0.010, 0.331, -0.161, 0.283, -0.577, 0.468, -0.259, -0.190, -0.451, -0.114, 0.576, 0.355, -0.003, -0.316, -0.688, -0.053, 0.693, 0.207, 0.303, 0.060, -0.891, 0.035, 0.554, 0.134, 0.052, 0.081, -0.869, 0.065, 0.049, -0.168, 0.039, -0.002, -0.167, -0.157, -0.375, -0.036, 0.033, -0.019, 0.023, 0.021, 0.362, 0.100, 0.101, -0.042, -0.048, 0.140, 0.030, 0.080, 0.061, -0.098, 0.015, 0.055, 0.099, 0.035, -0.008, 0.055, -0.002, -0.053, 0.018, -0.026, -0.032, 0.086, -0.071, -0.052, -0.049, -0.032, 0.040, 0.116, -0.035, -0.171, -0.175, 0.018, 0.054, 0.007, 0.062, 0.137, -0.044, 0.066, -0.058, -0.002, 0.018, 0.076, 0.104, 0.042, -0.045, 0.008, 0.038, -0.015, -0.074, 0.028, -0.077, 0.152, -0.036, -0.112, -0.043, 0.005, -0.014, 0.008, -0.037, -0.141, -0.217, 0.045, -0.010, -0.098, 0.076, -0.038, 0.035, 0.014, -0.037, 0.024, 0.011, 0.028, 0.190, 0.106, 0.023, 0.054, 0.017, -0.081, 0.002, 0.159, -0.044, 0.140, -0.084, -0.099, -0.055, 0.148, -0.073, -0.098, 0.007, -0.027, -0.033, -0.080, 0.093, -0.061, 0.110, -0.002, 0.024, -0.045, 0.035, 0.037, 0.065, 0.027, 0.214, -0.021, -0.001, 0.049, -0.076, 0.053, -0.010, -0.012, -0.041, 0.028, -0.125, -0.053, 0.126, 0.058, -0.095, -0.188, -0.142, -0.040, 0.115, -0.030, -0.003, -0.106, 0.146, -0.029, -0.051, -0.081, -0.083, 0.006, 0.100, -0.064, 0.155, 0.049, -0.116, -0.029, 0.149, 0.052, -0.042, 0.025, -0.051, 0.259, 0.042, -0.187, 0.043, 0.094, -0.096, -0.052, -0.024, -0.047, 0.071, 0.046, -0.021, 0.026, -0.026, -0.049, -0.354, -0.195, 0.217, 0.205, -0.233, 0.121, -0.144, -0.039, 0.174, 0.008, -0.228, 0.018, 0.036, -0.015, 0.065, -0.347, -0.365, -0.105, 0.278, 0.069, -0.098, -0.427, -0.334, -0.019, 0.284, 0.000, -0.177, -0.249, -0.319, -0.009, 0.117, -0.103, -0.080, -0.004, 0.219, -0.114, -0.403, 0.022, -0.065, -0.580, 0.271, -0.049, 0.099, -0.028, -0.051, -0.902, 0.010, -0.020, 0.543, 0.074, -0.074, -0.579, -0.270, 0.079, 0.156, -0.032, -0.045, -0.177, -0.223, 0.088, -0.300, 0.072, 0.045, 0.068, 0.125, -0.114, -0.018, 0.107, 0.030, -0.372, 0.027, -0.061, 0.354, 0.102, 0.138, -0.416, 0.090, 0.097, 0.241, 0.054, 0.004, 0.061, -0.149, 0.060, -0.299, -0.094, 0.133, 0.047, 0.055, 0.158, -0.559, -0.075, 0.169, 0.194, 0.257, -0.051, -0.095, -0.017, -0.210, 0.303, 0.182, 0.092, 0.025, -0.072, 0.062, 0.548, 0.246, 0.185, -0.115, -0.201, 0.111, 0.277, 0.379, 0.076, -0.465, -0.120, 0.023, 0.246, 0.591, 0.046, -0.225, -0.128, 0.285, 0.320, 0.585, -0.068, -0.201, -0.128, 0.046, 0.199, 0.621, 0.182, -0.236, 0.021, 0.091, 0.144, 0.407, -0.151, -0.394, 0.127, -0.128, 0.215, 0.247, 0.097, -0.229, 0.210, -0.148, 0.014, 0.189, 0.252, 0.169, 0.047, -0.022, -0.030, -0.039, -0.022, 0.489, 0.022, -0.091, -0.034, -0.010, -0.055, -0.031, 0.029, -0.107, -0.135, 0.034, -0.070, -0.030, 0.028, -0.025, -0.041, 0.000, -0.020, -0.188, -0.020, -0.018, -0.091, 0.036, 0.081, -0.173, -0.033, 0.007, -0.035, -0.052, 0.044, -0.182, -0.018, 0.002, 0.051, -0.173, 0.017, 0.042, 0.060, -0.048, 0.060, -0.131, -0.013, -0.098, 0.068, 0.111, 0.086, -0.028, -0.010, -0.129, -0.005, 0.069, 0.070, 0.082, 0.022, -0.156, 0.023, 0.022, -0.081, 0.084, 0.101, -0.085, 0.055, -0.088, -0.016, -0.077, -0.075, 0.086, 0.069, -0.043, -0.001, -0.104, -0.086, 0.029, 0.091, -0.027, 0.177, -0.047, -0.065, -0.052, 0.050, -0.022, 0.152, -0.051, -0.038, -0.139, 0.084, -0.059, -0.050, -0.079, 0.029, 0.024, 0.078, 0.139, 0.048, -0.101, -0.052, 0.120, 0.007, 0.106, 0.145, -0.214, -0.116, 0.166, -0.007, 0.099, 0.099, -0.068, -0.134, -0.023, 0.006, 0.010, 0.047, -0.099, -0.139, 0.052, 0.156, -0.056, 0.056, 0.052, 0.037, 0.070, -0.051, -0.101, 0.079, -0.059, -0.110, -0.067, -0.072, -0.088, -0.022, 0.064, -0.177, 0.016, 0.021, 0.050, -0.056, -0.008, -0.121, 0.029, -0.018, 0.081, -0.032, 0.011, -0.109, 0.107, 0.013, 0.009, -0.111, -0.044, 0.011, 0.048, 0.049, -0.023, 0.046, 0.044, 0.012, -0.556, -0.051, 0.030, -0.038, -0.042, -0.115, 0.065, 0.024, -0.077, -0.078, -0.044, -0.008, 0.061, -0.000, -0.031, 0.036, -0.070, 0.032, 0.019, 0.001, -0.196, 0.105, -0.010, -0.036, 0.160, 0.011, -0.030, -0.002, -0.045, -0.041, 0.086, 0.040, 0.037, -0.167, 0.102, -0.022, 0.084, -0.019, -0.091, 0.002, 0.130, 0.129, 0.081, 0.006, -0.024, 0.082, 0.190, 0.066, -0.022, 0.019, -0.067, 0.178, 0.134, 0.030, 0.028, -0.043, -0.020, 0.024, -0.121, -0.151, 0.049, -0.036, 0.061, -0.215, 0.213, 0.022, 0.012, -0.146, 0.081, -0.084, 0.253, 0.247, -0.096, -0.038, -0.029, 0.141, 0.190, 0.105, -0.120, -0.124, -0.066, 0.171, 0.180, 0.034, 0.008, -0.049, -0.060, -0.132, -0.039, -0.066, 0.068, -0.039, 0.055, -0.207, 0.169, 0.168, 0.089, -0.147, 0.009, -0.142, 0.124, 0.242, -0.037, -0.056, -0.007, 0.062, 0.084, 0.221, -0.033, -0.006, -0.038, -0.071, 0.105, 0.050, 0.006, -0.079, -0.038, -0.088, 0.094, -0.103, 0.041, -0.033, 0.009, -0.134, -0.015, 0.059, 0.031, -0.018, -0.010, -0.177, -0.042, 0.135, 0.002, 0.038, 0.029, 0.013, -0.033, -0.011, 0.064, 0.044, -0.060, 0.223, -0.149, -0.071, 0.047, 0.039, -0.031, 0.039, 0.053, -0.121, 0.017, -0.001, -0.025, -0.005, 0.023, 0.022, -0.406, -0.044, 0.038, -0.060, -0.025, -0.110, 0.127, -0.034, 0.060, -0.116, 0.032, -0.091, 0.003, 0.057, 0.066, -0.108, 0.091, -0.023, 0.041, -0.032, 0.054, -0.193, 0.125, 0.074, 0.052, 0.006, -0.083, -0.099, 0.011, 0.131, 0.030, -0.005, 0.013, -0.083, -0.020, -0.081, 0.067, -0.106, 0.121, 0.074, 0.032, 0.019, -0.058, -0.034, 0.027, 0.009, 0.215, 0.047, -0.061, -0.113, -0.052, 0.020, 0.258, 0.168, -0.138, -0.125, -0.007, -0.075, 0.144, 0.231, -0.088, -0.058, 0.049, -0.137, -0.050, -0.025, 0.140, -0.035, 0.101, -0.097, -0.117, 0.044, 0.183, 0.054, 0.077, 0.008, 0.003, 0.065, 0.180, -0.009, 0.003, 0.031, 0.192, 0.205, -0.084, -0.009, 0.088, -0.050, 0.151, 0.104, 0.023, 0.003, -0.025, -0.151, -0.100, -0.164, 0.120, -0.066, -0.081, -0.036, -0.056, -0.053, 0.022, -0.011, -0.064, 0.037, -0.028, 0.048, -0.008, -0.061, -0.151, 0.014, 0.116, 0.116, -0.098, -0.006, -0.033, 0.045, 0.115, 0.124, -0.032, 0.010, -0.035, -0.078, -0.108, -0.186, -0.002, 0.024, -0.030, -0.049, -0.228, -0.082, -0.102, 0.002, 0.026, 0.098, -0.175, -0.004, 0.011, -0.023, -0.177, -0.055, -0.040, 0.052, -0.037, 0.132, -0.022, -0.110, 0.196, 0.033, 0.142, -0.029, 0.011, -0.044, -0.029, -0.020, 0.050, 0.219, 0.077, -0.153, 0.258, -0.128, 0.180, 0.227, 0.018, -0.299, 0.257, -0.089, 0.423, 0.177, -0.076, -0.238, 0.171, -0.095, 0.303, 0.071, -0.020, -0.158, 0.067, 0.012, 0.320, 0.075, 0.025, 0.038, 0.039, 0.066, 0.274, 0.049, 0.096, 0.006, -0.115, 0.002, 0.402, 0.112, 0.099, -0.044, -0.392, 0.116, 0.325, -0.112, 0.188, 0.131, -0.392, 0.069, 0.081, 0.088, 0.077, 0.351, -0.221, -0.070, -0.240, 0.023, 0.053, 0.294, -0.093, -0.098, -0.394, 0.066, -0.023, 0.058, -0.147, -0.026, 0.215, -0.023, -0.147, 0.157, -0.284, -0.173, -0.113, -0.076, -0.210, 0.360, -0.021, -0.271, -0.167, -0.034, -0.125, 0.271, 0.206, -0.053, -0.237, -0.138, -0.053, 0.080, 0.104, 0.021, -0.086, -0.064, -0.106, 0.177, 0.079, 0.126, -0.132, -0.063, -0.012, 0.153, 0.216, 0.143, -0.162, -0.075, 0.106, 0.116, 0.271, -0.050, -0.019, 0.026, 0.173, 0.161, 0.470, -0.077, -0.079, -0.016, 0.080, 0.127, 0.209, -0.001, -0.051, -0.102, 0.017, 0.165, 0.253, 0.223, -0.247, 0.025, 0.040, 0.146, 0.461, 0.113, -0.140, -0.085, -0.020, 0.176, 0.440, 0.068, -0.032, -0.093, 0.053, 0.161, 0.425, 0.139, -0.025, -0.254, 0.099, 0.057, 0.204, 0.145, -0.172, -0.028, 0.044, -0.046, 0.046, -0.040, -0.263, -0.008, -0.057, 0.064, -0.058, 0.079, -0.164, -0.035, -0.123, -0.020, -0.054, 0.002, -0.114, -0.065, 0.092, -0.036, 0.142, -0.040, -0.071, 0.006, 0.174, 0.020, 0.146, -0.014, -0.053, 0.084, -0.089, 0.068, -0.168, 0.053, 0.229, 0.067, -0.126, 0.029, -0.001, -0.048, -0.045, -0.020, -0.040, -0.160, 0.041, -0.135, -0.109, -0.057, 0.032, -0.225, 0.046, -0.037, -0.206, -0.201, 0.177, -0.268, -0.122, 0.050, -0.079, -0.080, -0.097, -0.065, -0.290, 0.103, 0.096, 0.089, -0.044, -0.171, -0.157, 0.080, 0.035, -0.005, -0.004, -0.384, -0.325, -0.129, -0.008, -0.040, -0.019, -0.425, -0.288, 0.131, -0.133, -0.214, 0.159, -0.296, -0.330, 0.052, -0.034, -0.213, 0.225, 0.206, -0.530, 0.068, 0.125, 0.110, -0.005, -0.356, -0.239, 0.089, -0.049, 0.200, -0.031, -0.469, -0.316, -0.031, 0.054, 0.208, -0.145, -0.321, -0.326, -0.128, -0.102, 0.114, -0.065, -0.086, -0.302, -0.138, -0.211, -0.080, 0.297, 0.266, -0.435, 0.019, -0.135, -0.030, -0.085, -0.130, -0.087, 0.086, -0.128, 0.003, -0.121, -0.042, -0.178, 0.092, 0.032, 0.085, -0.075, 0.079, -0.207, 0.111, 0.069, 0.114, -0.044, 0.056, -0.190, -0.044, -0.045, 0.072, 0.180, 0.251, -0.105, -0.064, -0.052, 0.050, 0.022, 0.044, -0.047, -0.016  };



float Layer3_Weights_CPU[125100] = {0.125, -0.050, -0.005, 0.059, 0.063, 0.026, -0.064, -0.031, -0.006, 0.086, 0.105, -0.076, -0.003, -0.028, -0.039, 0.068, -0.033, 0.064, -0.006, -0.000, -0.021, 0.053, 0.144, 0.117, -0.122, -0.100, 0.011, -0.063, 0.022, -0.060, -0.041, 0.040, 0.000, -0.035, 0.019, -0.062, 0.029, 0.046, -0.040, 0.050, -0.056, -0.031, 0.004, 0.029, -0.033, 0.044, 0.059, 0.004, 0.028, 0.036, -0.025, 0.133, 0.017, -0.056, -0.060, -0.040, 0.080, -0.033, 0.026, 0.085, -0.007, -0.044, -0.001, -0.003, 0.030, -0.003, -0.010, -0.081, 0.038, -0.045, 0.015, 0.034, -0.024, -0.071, -0.012, -0.074, -0.056, 0.038, 0.134, 0.151, 0.259, -0.060, 0.044, 0.094, 0.032, 0.194, 0.082, 0.028, -0.038, -0.014, 0.036, 0.042, 0.059, 0.048, 0.021, -0.001, -0.049, -0.018, 0.100, -0.038, -0.057, -0.032, 0.016, -0.044, -0.183, -0.120, -0.037, -0.143, -0.010, -0.113, -0.243, -0.040, 0.085, 0.110, 0.101, 0.015, -0.024, 0.136, 0.087, 0.061, -0.015, -0.037, 0.126, 0.017, -0.028, -0.008, 0.017, 0.023, 0.153, 0.010, 0.105, -0.080, -0.029, 0.050, -0.020, -0.035, -0.033, 0.073, 0.005, -0.075, -0.177, 0.031, 0.068, -0.084, -0.135, -0.080, 0.004, 0.021, 0.071, 0.016, 0.044, 0.026, 0.042, -0.040, -0.208, -0.129, -0.063, -0.049, -0.053, -0.127, -0.204, -0.033, 0.005, 0.031, -0.034, 0.026, 0.137, 0.070, 0.012, 0.042, 0.064, 0.090, 0.125, 0.100, 0.043, -0.008, 0.050, 0.008, 0.078, -0.054, -0.037, 0.042, 0.073, 0.114, 0.042, -0.013, -0.009, -0.071, 0.043, 0.154, 0.132, -0.068, -0.080, -0.054, 0.043, 0.024, 0.009, -0.067, -0.068, -0.037, 0.006, 0.046, -0.019, -0.119, -0.108, 0.033, -0.004, 0.018, -0.045, -0.250, -0.219, -0.183, -0.071, -0.020, -0.150, -0.250, -0.278, -0.280, -0.051, -0.039, -0.025, -0.012, -0.120, -0.013, 0.033, -0.020, -0.037, 0.008, -0.019, -0.008, -0.016, -0.029, 0.093, -0.009, -0.051, -0.031, 0.074, -0.005, 0.055, 0.001, 0.024, 0.020, -0.007, 0.025, -0.004, -0.011, 0.037, -0.030, 0.004, -0.009, 0.037, 0.162, 0.079, -0.125, -0.164, -0.164, 0.130, 0.137, 0.051, -0.038, -0.213, -0.032, -0.041, 0.139, -0.081, -0.112, -0.202, -0.026, 0.042, -0.013, 0.020, -0.067, 0.023, 0.040, 0.088, 0.029, -0.045, 0.039, -0.025, 0.003, 0.046, 0.040, 0.011, -0.025, 0.027, 0.030, 0.029, -0.062, -0.017, -0.028, -0.024, -0.043, -0.016, -0.013, -0.007, -0.012, -0.004, 0.012, -0.030, 0.017, 0.027, -0.117, -0.024, 0.040, -0.032, -0.014, -0.086, -0.006, 0.047, 0.039, -0.019, -0.015, -0.052, -0.065, -0.084, 0.010, 0.007, -0.032, -0.043, -0.015, -0.080, 0.023, 0.083, 0.013, -0.046, -0.092, -0.016, 0.060, 0.067, -0.002, -0.065, -0.004, 0.021, 0.059, 0.010, 0.013, -0.005, 0.056, -0.003, 0.018, 0.057, 0.072, 0.107, -0.014, 0.009, 0.074, 0.016, 0.075, -0.033, -0.039, -0.050, 0.001, 0.005, -0.045, 0.022, -0.048, -0.012, 0.013, 0.011, -0.011, 0.013, -0.038, 0.024, 0.013, -0.035, -0.047, 0.009, 0.060, -0.004, -0.059, -0.013, 0.009, 0.022, 0.058, -0.002, 0.006, -0.048, 0.073, 0.092, 0.043, -0.006, -0.011, 0.123, 0.069, 0.020, 0.059, 0.025, 0.118, 0.064, 0.029, 0.037, 0.033, 0.137, 0.003, 0.120, 0.102, -0.001, -0.049, 0.101, 0.013, 0.022, 0.133, 0.091, -0.066, -0.039, -0.035, 0.064, 0.116, -0.098, -0.104, -0.136, -0.027, 0.052, 0.017, -0.036, -0.117, -0.033, 0.013, 0.062, -0.044, -0.038, 0.009, -0.030, -0.048, -0.006, 0.023, 0.002, -0.012, -0.008, -0.036, -0.108, 0.064, 0.104, 0.140, 0.114, 0.057, 0.116, -0.018, 0.038, 0.091, 0.021, 0.028, 0.019, 0.022, 0.000, 0.039, -0.011, -0.033, -0.098, -0.146, -0.019, 0.024, 0.012, -0.047, -0.005, -0.005, -0.015, -0.064, -0.058, -0.035, -0.062, 0.033, -0.031, -0.033, -0.073, -0.059, -0.005, 0.015, 0.005, 0.033, 0.007, 0.017, 0.026, -0.001, -0.009, -0.011, 0.029, -0.044, -0.056, 0.067, 0.012, -0.043, -0.012, -0.008, 0.059, 0.157, 0.057, 0.171, -0.012, -0.047, 0.035, 0.012, 0.121, 0.038, -0.054, -0.018, 0.061, 0.077, -0.062, -0.158, -0.135, -0.001, 0.014, -0.029, -0.091, -0.004, -0.102, -0.124, -0.047, -0.054, 0.016, 0.073, -0.008, -0.035, 0.068, 0.041, 0.076, 0.094, -0.006, -0.065, -0.050, -0.039, 0.018, 0.072, -0.004, 0.012, 0.062, 0.009, 0.006, 0.029, -0.021, -0.012, 0.029, -0.025, -0.028, 0.004, -0.032, -0.003, -0.023, -0.039, -0.042, 0.004, -0.046, 0.095, 0.078, 0.053, 0.014, -0.095, 0.001, -0.011, -0.010, -0.048, -0.005, 0.037, -0.028, -0.049, -0.073, 0.047, 0.012, -0.082, -0.043, 0.070, 0.051, 0.060, 0.010, 0.047, 0.016, 0.029, 0.014, -0.011, 0.033, -0.034, -0.013, 0.014, 0.052, 0.002, 0.046, -0.031, 0.026, 0.077, -0.031, 0.081, 0.068, 0.052, -0.034, -0.046, 0.070, -0.036, 0.032, -0.002, 0.008, 0.053, 0.052, 0.012, -0.015, -0.008, 0.018, 0.037, 0.053, -0.023, 0.001, -0.080, -0.040, 0.052, 0.033, 0.113, 0.005, -0.018, -0.015, 0.027, -0.010, -0.024, 0.012, 0.006, -0.002, -0.032, 0.040, 0.025, -0.013, -0.005, -0.021, 0.029, 0.025, 0.035, 0.019, -0.021, -0.001, -0.146, -0.155, 0.069, 0.087, -0.087, -0.131, -0.073, 0.097, 0.050, -0.027, -0.062, -0.043, 0.025, 0.026, 0.065, 0.086, 0.017, -0.045, -0.006, 0.026, 0.056, -0.006, -0.059, -0.043, 0.017, 0.045, -0.042, -0.129, -0.122, 0.054, 0.041, -0.094, -0.123, -0.109, -0.091, -0.066, 0.028, -0.036, 0.013, -0.162, -0.047, -0.047, 0.016, 0.009, -0.066, 0.034, 0.007, 0.059, 0.089, 0.131, 0.162, 0.074, 0.039, 0.058, 0.084, 0.101, 0.067, -0.029, -0.019, -0.018, 0.005, 0.011, -0.073, -0.027, -0.044, 0.010, -0.051, -0.052, -0.102, 0.032, 0.033, 0.029, -0.075, -0.032, 0.007, 0.024, -0.054, -0.047, 0.029, -0.017, -0.034, 0.057, 0.083, 0.024, -0.050, -0.057, 0.026, 0.064, 0.019, -0.003, 0.033, -0.033, -0.022, -0.035, -0.050, 0.005, -0.059, -0.014, -0.009, -0.057, -0.051, -0.098, -0.126, -0.159, -0.007, 0.010, -0.022, -0.052, -0.015, 0.030, 0.005, 0.020, -0.018, 0.059, -0.008, -0.020, -0.019, 0.081, 0.135, -0.013, -0.124, -0.068, 0.035, 0.002, 0.000, -0.018, -0.000, -0.013, -0.029, 0.081, -0.007, -0.025, -0.007, -0.000, -0.006, 0.034, 0.026, 0.023, 0.018, 0.030, 0.015, -0.013, -0.007, -0.026, 0.015, -0.019, -0.034, 0.010, 0.040, -0.082, -0.090, -0.127, -0.163, -0.059, -0.024, -0.191, -0.169, -0.069, 0.060, 0.073, -0.029, -0.125, -0.129, 0.002, 0.043, 0.162, -0.054, -0.036, 0.005, -0.001, 0.174, 0.124, -0.003, -0.027, 0.023, 0.059, 0.109, 0.041, 0.052, -0.092, 0.023, 0.052, 0.052, 0.021, -0.057, 0.030, 0.033, -0.071, 0.029, -0.018, 0.019, 0.018, -0.017, -0.012, -0.051, 0.018, 0.005, 0.016, -0.021, -0.020, -0.030, -0.063, 0.043, 0.038, 0.065, 0.006, -0.056, -0.050, 0.053, 0.004, -0.014, -0.062, 0.024, 0.049, -0.017, -0.037, -0.048, -0.018, -0.012, 0.006, -0.049, 0.078, -0.030, -0.007, -0.035, 0.023, 0.020, -0.037, -0.015, 0.022, -0.040, -0.033, 0.022, 0.042, -0.033, 0.033, 0.064, -0.005, -0.021, 0.029, -0.009, -0.034, 0.033, -0.012, 0.001, -0.053, 0.003, -0.030, -0.027, -0.110, -0.043, 0.124, 0.131, 0.108, -0.075, -0.047, -0.050, 0.053, 0.071, -0.120, -0.003, -0.063, -0.018, 0.056, 0.021, 0.017, 0.026, 0.017, 0.032, 0.026, 0.114, 0.039, -0.011, 0.012, -0.028, -0.060, -0.126, -0.300, -0.239, -0.045, 0.062, -0.026, -0.110, -0.108, -0.098, -0.037, 0.028, -0.065, -0.041, 0.027, 0.044, 0.030, -0.007, -0.028, -0.040, 0.017, 0.026, 0.024, 0.062, 0.001, -0.048, 0.016, 0.083, 0.092, -0.056, -0.111, -0.051, 0.055, 0.190, -0.021, 0.020, -0.104, -0.005, 0.011, 0.020, 0.032, -0.103, -0.067, -0.095, -0.031, -0.037, -0.038, -0.031, 0.012, 0.028, 0.093, 0.070, 0.061, 0.034, 0.069, 0.049, 0.015, 0.047, 0.050, 0.044, -0.010, 0.035, -0.036, 0.030, -0.130, -0.183, -0.073, -0.055, 0.029, -0.111, -0.052, -0.014, 0.065, -0.012, -0.033, -0.058, -0.127, -0.139, -0.154, -0.038, 0.038, 0.036, -0.071, -0.058, 0.040, 0.024, 0.089, 0.064, -0.007, -0.067, 0.024, 0.038, -0.013, 0.045, -0.078, -0.036, 0.028, 0.102, -0.004, 0.025, 0.032, 0.004, -0.023, -0.086, -0.009, 0.066, 0.021, -0.035, -0.018, -0.031, 0.018, 0.017, -0.086, -0.022, -0.139, -0.076, -0.086, -0.103, 0.000, 0.032, -0.019, -0.106, -0.092, -0.070, -0.038, -0.005, 0.007, 0.055, 0.020, -0.033, -0.024, 0.042, 0.017, 0.001, -0.057, -0.092, -0.035, 0.019, 0.006, -0.040, 0.056, -0.073, -0.013, -0.050, -0.014, -0.005, 0.012, 0.002, -0.005, -0.018, 0.113, 0.133, 0.177, 0.214, 0.024, 0.053, 0.096, 0.060, 0.017, -0.099, -0.055, -0.002, -0.018, -0.029, -0.168, -0.089, -0.034, -0.095, -0.098, -0.140, -0.215, -0.138, -0.177, -0.149, -0.030, 0.015, -0.073, 0.057, 0.013, 0.027, -0.046, -0.004, 0.048, 0.015, 0.039, -0.026, 0.019, 0.046, -0.018, -0.016, -0.007, 0.043, -0.014, 0.030, -0.019, 0.004, 0.002, 0.015, 0.046, 0.113, 0.175, 0.121, 0.093, 0.005, 0.004, 0.022, 0.105, 0.056, -0.075, -0.068, -0.024, -0.038, -0.100, -0.076, -0.058, -0.114, -0.143, -0.128, -0.111, 0.036, 0.011, -0.008, -0.009, 0.031, -0.065, -0.037, -0.117, -0.004, -0.009, 0.033, -0.020, -0.018, 0.048, 0.007, 0.055, 0.018, -0.023, 0.052, -0.001, -0.023, -0.030, -0.065, -0.001, -0.011, 0.003, 0.013, 0.001, -0.006, 0.033, 0.034, 0.004, 0.024, -0.029, -0.014, -0.031, 0.010, -0.009, 0.014, -0.017, -0.045, 0.043, -0.004, -0.039, -0.022, 0.056, 0.031, -0.028, 0.007, -0.020, -0.018, -0.036, 0.022, 0.038, -0.010, -0.007, 0.079, 0.031, 0.065, 0.057, 0.017, -0.080, -0.025, -0.030, 0.033, -0.027, -0.016, -0.082, -0.023, -0.026, 0.050, 0.020, 0.043, -0.054, -0.012, 0.037, 0.069, 0.009, 0.038, -0.037, 0.137, 0.114, 0.080, 0.037, 0.005, -0.030, 0.076, 0.055, 0.044, 0.033, -0.100, -0.065, -0.046, 0.081, 0.006, -0.056, -0.049, 0.044, 0.029, 0.017, 0.025, 0.112, 0.115, -0.054, -0.033, 0.029, 0.105, 0.121, 0.044, -0.064, 0.060, 0.130, 0.099, 0.169, 0.028, 0.139, 0.097, -0.050, 0.085, 0.106, 0.030, 0.073, -0.067, -0.030, 0.013, -0.040, -0.074, -0.070, -0.056, 0.001, -0.045, -0.012, -0.031, 0.010, -0.005, 0.018, 0.048, 0.000, -0.019, -0.021, -0.030, -0.044, -0.010, -0.017, -0.033, 0.032, -0.013, -0.049, -0.011, 0.013, 0.014, 0.010, 0.008, 0.023, 0.021, 0.027, 0.036, -0.020, 0.027, 0.035, -0.037, 0.036, -0.026, 0.020, 0.020, -0.018, -0.033, -0.014, 0.014, -0.021, -0.020, 0.029, -0.024, -0.009, 0.015, -0.017, -0.031, 0.047, 0.053, -0.028, 0.044, 0.029, -0.042, -0.011, 0.018, -0.010, 0.018, 0.027, 0.025, -0.023, 0.008, -0.024, -0.025, -0.017, -0.028, 0.018, 0.001, -0.013, 0.001, 0.012, 0.063, -0.023, 0.036, 0.028, -0.026, 0.031, 0.024, 0.045, -0.008, -0.076, -0.062, 0.044, 0.052, -0.008, -0.038, 0.046, -0.024, -0.030, -0.115, -0.018, 0.027, -0.077, 0.008, -0.068, 0.023, 0.008, 0.020, 0.012, -0.025, 0.021, 0.020, -0.066, -0.016, 0.017, -0.016, 0.043, -0.012, -0.016, -0.036, -0.016, 0.031, -0.006, 0.009, -0.003, 0.001, -0.032, -0.042, -0.042, 0.004, -0.001, 0.029, 0.042, 0.010, -0.044, -0.012, 0.005, 0.010, 0.023, 0.034, 0.020, -0.031, -0.055, -0.023, -0.004, 0.031, -0.039, -0.006, -0.008, 0.038, -0.008, -0.032, -0.024, 0.027, -0.047, -0.008, 0.013, 0.014, 0.011, -0.009, 0.019, 0.064, -0.009, 0.020, 0.024, -0.034, -0.017, -0.032, -0.032, -0.022, 0.011, -0.040, -0.027, 0.050, -0.034, 0.009, -0.022, 0.000, -0.000, 0.036, -0.003, -0.010, 0.014, -0.043, 0.034, -0.036, 0.007, 0.067, 0.030, -0.019, 0.033, -0.037, -0.015, -0.039, -0.000, -0.012, 0.005, -0.026, -0.029, 0.037, -0.031, 0.002, -0.028, -0.031, 0.019, -0.030, -0.014, 0.019, -0.007, 0.059, -0.005, 0.045, -0.015, -0.015, 0.050, 0.017, -0.046, -0.015, -0.020, -0.026, -0.037, -0.014, 0.012, 0.038, 0.044, -0.012, 0.008, 0.002, -0.036, 0.017, 0.001, 0.020, 0.020, -0.051, 0.003, -0.002, -0.060, -0.040, -0.038, 0.011, 0.017, -0.027, 0.037, -0.024, 0.054, -0.011, 0.033, 0.014, -0.037, 0.037, -0.023, 0.023, -0.005, -0.021, -0.019, -0.023, -0.037, -0.042, 0.031, -0.001, -0.035, 0.039, 0.032, 0.002, 0.021, -0.002, -0.055, -0.004, 0.006, 0.026, 0.058, -0.014, 0.065, -0.026, -0.024, 0.016, 0.027, 0.040, -0.034, 0.027, 0.044, -0.002, 0.008, -0.077, -0.025, -0.001, -0.004, 0.010, -0.002, 0.019, -0.006, 0.001, -0.019, 0.013, -0.043, -0.036, 0.008, -0.019, 0.014, 0.010, -0.003, 0.001, -0.012, -0.010, -0.014, -0.055, 0.009, -0.008, -0.085, -0.056, -0.008, -0.026, 0.027, -0.020, -0.004, 0.037, 0.001, -0.037, 0.050, -0.026, -0.032, 0.013, 0.014, -0.002, 0.037, -0.023, 0.003, -0.010, -0.005, 0.002, 0.009, -0.027, -0.031, 0.013, 0.003, 0.003, 0.026, -0.028, 0.018, -0.008, -0.001, 0.015, 0.027, -0.011, -0.002, -0.009, 0.016, -0.016, 0.034, 0.010, 0.008, -0.022, 0.010, 0.008, -0.028, -0.005, 0.026, -0.007, -0.012, -0.002, 0.033, -0.024, -0.022, -0.034, -0.028, 0.022, -0.006, -0.011, -0.005, 0.019, 0.008, -0.029, 0.036, 0.003, -0.010, -0.050, -0.023, 0.040, -0.006, 0.006, -0.013, 0.010, 0.021, 0.007, 0.044, 0.046, 0.030, -0.003, 0.010, 0.021, 0.029, 0.009, 0.008, 0.008, 0.035, 0.002, 0.050, 0.006, 0.006, 0.024, 0.005, -0.042, 0.015, -0.013, -0.006, -0.012, -0.013, 0.029, -0.021, 0.001, 0.028, -0.012, 0.018, -0.035, -0.032, 0.009, 0.033, 0.016, 0.019, 0.002, 0.008, 0.030, 0.052, 0.007, 0.019, -0.034, 0.017, -0.022, -0.018, 0.041, -0.000, 0.013, 0.012, 0.014, 0.003, -0.052, 0.022, -0.008, -0.026, -0.006, -0.011, -0.025, -0.022, -0.010, 0.024, -0.013, 0.030, 0.039, -0.008, -0.023, 0.004, -0.010, 0.018, -0.030, -0.073, 0.018, 0.003, 0.005, 0.031, -0.048, 0.031, 0.022, 0.045, -0.042, -0.022, -0.006, 0.031, -0.001, -0.037, -0.001, 0.038, 0.036, 0.037, 0.021, -0.009, -0.014, 0.045, -0.026, 0.013, 0.003, 0.000, 0.024, 0.031, 0.002, 0.036, -0.002, 0.027, 0.029, 0.018, -0.060, -0.041, 0.016, -0.061, -0.004, 0.023, -0.038, 0.016, 0.021, 0.009, -0.022, 0.003, -0.001, 0.025, -0.013, 0.025, 0.037, 0.009, -0.064, -0.050, -0.024, -0.015, 0.006, -0.007, 0.001, 0.035, 0.013, 0.002, 0.005, 0.023, 0.015, -0.021, -0.032, 0.029, -0.044, 0.020, 0.020, 0.035, 0.016, -0.020, -0.031, -0.031, 0.002, 0.062, 0.031, 0.057, 0.068, -0.042, 0.029, -0.007, 0.018, 0.005, -0.032, 0.023, 0.025, 0.022, 0.012, -0.004, 0.007, 0.027, 0.008, -0.005, 0.005, -0.043, 0.044, -0.028, -0.029, 0.038, -0.028, 0.005, 0.005, -0.018, 0.007, 0.021, 0.027, 0.003, -0.006, -0.035, -0.016, -0.019, -0.013, 0.005, -0.009, 0.011, -0.014, 0.051, 0.034, 0.000, 0.011, 0.009, -0.020, -0.021, -0.048, 0.057, -0.023, -0.035, -0.006, 0.042, -0.015, 0.000, -0.016, -0.046, -0.041, 0.031, -0.053, 0.006, -0.019, -0.075, 0.050, 0.024, 0.006, -0.017, -0.029, -0.005, -0.013, -0.002, -0.037, -0.057, 0.041, 0.008, 0.019, 0.014, -0.046, -0.033, 0.020, 0.009, 0.041, 0.043, -0.006, -0.033, -0.004, -0.018, 0.015, 0.021, -0.007, 0.038, -0.014, -0.032, -0.022, 0.035, 0.003, -0.021, 0.017, 0.035, 0.010, -0.035, 0.028, 0.022, 0.058, -0.038, 0.009, 0.000, -0.001, -0.014, -0.036, 0.013, -0.017, -0.011, -0.010, -0.019, 0.059, 0.037, -0.020, 0.020, -0.004, -0.014, 0.019, -0.024, 0.015, -0.015, 0.011, -0.012, -0.040, -0.016, 0.004, -0.026, -0.007, -0.001, 0.019, 0.033, 0.029, -0.032, 0.025, 0.034, 0.013, 0.042, 0.018, 0.052, 0.032, -0.001, 0.020, 0.014, 0.012, 0.092, -0.004, -0.041, 0.017, -0.044, 0.029, 0.045, -0.011, -0.017, -0.024, 0.003, 0.011, 0.019, -0.001, -0.006, 0.038, 0.032, -0.056, 0.032, -0.004, 0.083, -0.000, -0.052, 0.001, -0.006, 0.067, 0.000, 0.000, 0.022, 0.023, -0.044, 0.011, -0.012, -0.045, -0.006, 0.051, 0.023, -0.021, 0.042, -0.019, 0.002, -0.050, -0.002, 0.012, 0.010, -0.022, 0.012, 0.050, -0.015, -0.031, 0.003, 0.006, 0.028, 0.017, 0.027, -0.027, -0.006, -0.016, 0.041, 0.000, 0.034, 0.002, 0.028, 0.026, -0.025, 0.024, 0.019, -0.010, 0.021, 0.036, -0.009, -0.041, 0.033, -0.009, 0.028, 0.009, 0.010, 0.008, -0.021, -0.042, -0.019, 0.001, 0.012, 0.027, 0.007, 0.005, -0.008, -0.005, -0.053, -0.037, -0.016, -0.010, -0.045, -0.006, 0.028, 0.052, -0.050, -0.015, 0.041, -0.023, -0.013, -0.020, -0.005, -0.012, 0.033, -0.046, -0.054, 0.034, 0.000, -0.020, 0.035, -0.081, -0.089, 0.000, 0.002, 0.007, -0.068, -0.055, -0.048, -0.017, 0.018, -0.039, -0.076, 0.005, 0.001, 0.039, -0.041, -0.011, -0.009, 0.007, 0.009, 0.057, -0.000, -0.040, -0.013, -0.047, -0.014, -0.008, 0.012, 0.022, 0.013, -0.047, -0.015, -0.024, -0.006, -0.002, 0.013, 0.040, 0.007, 0.036, -0.003, 0.009, 0.046, 0.006, -0.026, 0.018, 0.012, 0.017, 0.026, -0.059, 0.002, -0.003, 0.020, -0.001, 0.014, 0.002, -0.055, 0.025, -0.037, -0.009, 0.033, 0.007, -0.008, -0.023, -0.008, -0.036, -0.016, 0.055, 0.039, -0.019, -0.003, 0.016, 0.019, -0.007, 0.009, 0.027, 0.010, 0.005, 0.043, -0.043, -0.007, -0.017, -0.044, 0.003, -0.023, -0.025, 0.007, 0.000, -0.035, 0.032, -0.019, -0.005, 0.009, -0.029, 0.041, -0.034, -0.014, 0.043, 0.014, 0.013, -0.021, 0.032, 0.030, 0.013, 0.023, 0.000, 0.002, -0.056, -0.048, -0.015, -0.009, -0.071, 0.009, 0.008, 0.004, -0.020, -0.048, 0.015, 0.035, 0.038, 0.013, 0.068, -0.013, -0.028, 0.009, 0.026, 0.024, 0.042, 0.030, 0.019, -0.034, 0.004, -0.031, 0.005, -0.064, -0.007, -0.057, -0.002, 0.033, 0.047, 0.002, -0.019, -0.042, 0.097, 0.021, 0.045, 0.023, 0.005, -0.014, 0.039, -0.003, -0.029, -0.005, -0.047, -0.045, -0.026, 0.038, -0.019, 0.024, 0.002, -0.037, 0.003, 0.002, 0.031, 0.023, 0.020, -0.001, 0.052, -0.017, -0.009, 0.021, 0.015, -0.054, 0.014, -0.034, 0.052, 0.007, 0.034, 0.015, 0.021, -0.037, -0.001, -0.036, 0.012, -0.027, 0.013, 0.074, 0.015, -0.032, 0.055, 0.002, -0.000, -0.012, 0.011, -0.038, -0.012, -0.030, -0.042, 0.007, -0.010, 0.007, 0.027, 0.048, 0.039, -0.024, 0.045, -0.038, -0.013, 0.016, 0.012, 0.004, -0.050, -0.070, -0.027, 0.030, -0.024, 0.006, 0.017, 0.003, 0.023, 0.029, -0.004, 0.019, -0.005, -0.025, 0.015, -0.000, -0.020, 0.020, 0.006, -0.012, 0.033, 0.019, 0.021, -0.009, -0.028, 0.019, -0.063, -0.035, 0.036, -0.002, -0.010, -0.027, -0.005, 0.017, -0.012, 0.037, -0.027, 0.003, -0.026, 0.062, 0.013, 0.090, -0.020, 0.017, -0.025, -0.022, -0.029, -0.001, 0.013, -0.023, -0.034, 0.025, -0.030, 0.021, -0.012, -0.025, -0.019, 0.029, -0.020, 0.012, 0.096, 0.117, 0.010, -0.054, 0.065, 0.037, -0.016, 0.019, -0.035, 0.004, -0.030, -0.016, -0.009, -0.036, 0.086, 0.050, -0.007, -0.024, 0.040, 0.010, -0.019, -0.039, 0.022, -0.025, 0.037, -0.027, -0.047, -0.018, 0.019, 0.016, -0.017, 0.017, -0.009, -0.000, -0.018, 0.018, -0.015, 0.014, -0.030, 0.022, -0.007, 0.035, -0.024, -0.035, 0.034, 0.025, 0.019, -0.001, 0.009, -0.006, 0.020, 0.041, 0.014, -0.032, -0.016, 0.028, 0.008, 0.030, -0.058, -0.021, -0.027, 0.004, 0.019, -0.016, -0.052, -0.002, -0.034, -0.012, 0.053, -0.037, 0.016, 0.019, -0.022, 0.010, 0.018, 0.040, -0.031, -0.028, 0.038, -0.036, 0.002, -0.005, -0.015, 0.008, -0.026, 0.035, 0.038, 0.014, 0.012, -0.041, 0.012, -0.032, 0.001, 0.023, 0.043, -0.038, 0.033, -0.028, 0.017, -0.026, 0.021, 0.022, 0.001, 0.017, -0.031, -0.027, -0.038, 0.010, -0.030, -0.000, 0.027, 0.036, -0.031, 0.040, -0.019, -0.047, 0.026, 0.041, -0.003, 0.021, -0.002, -0.028, -0.052, -0.012, -0.013, -0.017, -0.033, -0.060, -0.030, -0.019, -0.005, -0.002, 0.003, -0.006, 0.025, -0.060, 0.007, 0.031, -0.020, 0.009, 0.033, -0.010, 0.042, 0.012, -0.001, 0.003, -0.022, 0.030, 0.019, -0.016, 0.025, -0.000, -0.044, -0.029, -0.008, 0.026, 0.000, 0.011, 0.028, 0.023, 0.023, 0.029, 0.054, 0.017, -0.028, 0.013, 0.019, 0.049, 0.071, -0.022, -0.054, -0.003, 0.039, -0.015, 0.016, -0.009, -0.024, -0.001, -0.024, -0.021, 0.040, 0.011, 0.002, -0.004, 0.035, 0.012, 0.004, -0.027, 0.033, 0.010, 0.026, -0.025, 0.032, -0.021, -0.057, 0.007, -0.042, -0.002, 0.007, 0.195, -0.019, -0.034, -0.039, 0.037, -0.018, 0.079, 0.039, 0.029, -0.032, -0.012, -0.094, -0.022, -0.047, -0.040, 0.030, 0.073, 0.088, 0.000, -0.025, 0.009, 0.005, 0.005, 0.119, 0.039, 0.017, 0.048, 0.064, 0.024, -0.014, -0.004, 0.013, -0.015, 0.006, -0.008, -0.027, 0.046, -0.017, -0.030, 0.010, -0.004, 0.028, -0.002, 0.015, 0.026, -0.016, 0.002, -0.057, -0.053, -0.025, 0.017, 0.033, -0.013, 0.005, -0.010, -0.083, 0.018, 0.018, 0.026, -0.000, -0.027, 0.040, -0.015, 0.051, 0.002, -0.066, 0.099, -0.015, -0.068, 0.027, -0.048, 0.006, -0.134, -0.109, -0.214, -0.060, 0.005, 0.086, 0.006, 0.024, 0.025, 0.067, 0.038, -0.044, 0.035, 0.000, 0.119, 0.062, -0.150, -0.142, -0.019, 0.021, 0.060, -0.091, -0.160, -0.003, -0.053, -0.066, -0.174, -0.070, -0.026, 0.047, 0.008, 0.021, 0.039, 0.030, -0.001, 0.001, 0.023, 0.006, 0.019, -0.117, 0.034, 0.131, -0.042, -0.070, -0.059, -0.029, 0.090, -0.059, -0.041, 0.116, -0.108, -0.034, 0.140, 0.066, 0.067, 0.042, 0.017, -0.017, 0.003, 0.008, 0.021, 0.044, 0.033, 0.073, 0.098, 0.097, 0.045, -0.074, 0.007, -0.000, 0.030, -0.194, -0.176, 0.005, -0.028, 0.006, -0.181, -0.147, -0.059, 0.006, 0.058, -0.034, -0.040, 0.052, -0.011, 0.049, 0.042, -0.054, -0.034, 0.025, 0.026, -0.070, -0.097, -0.056, -0.022, 0.036, -0.101, 0.009, 0.005, -0.046, -0.062, -0.055, 0.058, 0.027, 0.022, 0.010, -0.040, -0.008, 0.010, -0.029, -0.041, 0.001, -0.076, -0.039, 0.003, 0.019, -0.024, -0.065, -0.012, 0.036, 0.034, -0.070, -0.055, -0.040, 0.086, -0.072, -0.061, -0.073, -0.031, -0.006, -0.009, -0.059, -0.012, -0.051, -0.060, -0.064, -0.033, -0.030, -0.008, -0.049, -0.021, 0.067, 0.047, -0.062, -0.098, -0.077, 0.063, 0.024, -0.093, -0.084, -0.160, -0.192, -0.113, -0.135, 0.023, -0.019, 0.035, -0.032, -0.039, 0.045, 0.016, 0.038, -0.012, 0.007, 0.008, 0.009, 0.018, 0.021, -0.038, -0.002, -0.000, 0.048, 0.026, 0.032, -0.004, 0.010, -0.013, 0.010, 0.040, 0.015, -0.009, 0.080, 0.036, 0.016, -0.033, -0.027, -0.031, -0.074, -0.022, -0.021, 0.024, 0.103, 0.002, 0.012, 0.027, 0.119, 0.156, -0.028, -0.012, 0.172, 0.066, 0.081, -0.067, 0.013, -0.032, -0.000, 0.018, 0.007, 0.045, 0.011, -0.019, 0.019, 0.013, 0.005, -0.030, 0.010, 0.042, -0.027, -0.029, 0.023, 0.001, -0.001, -0.054, -0.008, -0.007, 0.049, -0.013, 0.032, -0.065, 0.024, 0.019, 0.005, 0.030, -0.008, 0.022, -0.035, 0.026, 0.002, -0.049, -0.035, -0.048, 0.034, -0.018, 0.002, -0.008, -0.017, -0.044, 0.010, 0.069, 0.002, -0.049, -0.102, 0.089, 0.078, -0.032, -0.003, -0.036, -0.017, 0.029, -0.014, -0.009, -0.018, -0.019, -0.028, -0.061, 0.004, -0.071, 0.002, -0.003, 0.038, -0.058, -0.052, 0.046, -0.006, -0.034, -0.067, -0.039, -0.091, -0.028, 0.004, -0.013, -0.024, -0.057, -0.040, -0.025, 0.023, 0.013, -0.056, -0.014, -0.038, -0.010, 0.034, -0.002, 0.025, -0.001, 0.022, 0.013, 0.069, 0.082, 0.025, -0.066, -0.086, 0.044, -0.000, -0.095, -0.014, -0.072, 0.010, -0.035, -0.034, 0.002, -0.041, -0.032, 0.004, 0.021, 0.022, -0.003, 0.003, 0.083, 0.055, 0.050, 0.200, 0.085, 0.077, 0.046, 0.061, 0.099, 0.041, 0.087, -0.008, -0.054, -0.107, -0.099, -0.072, 0.007, -0.011, -0.040, -0.078, -0.074, -0.029, -0.010, 0.026, -0.089, -0.093, 0.023, 0.018, 0.056, -0.013, -0.082, -0.015, -0.185, -0.186, -0.233, -0.135, 0.013, -0.075, -0.013, 0.024, -0.043, 0.028, -0.043, -0.023, -0.011, -0.004, 0.020, -0.048, -0.094, -0.013, -0.032, 0.010, -0.065, -0.068, -0.083, 0.008, -0.011, 0.067, -0.142, -0.192, -0.161, 0.049, -0.018, 0.039, 0.052, 0.023, -0.047, -0.034, 0.028, -0.028, -0.033, -0.014, 0.001, 0.073, 0.037, -0.045, -0.001, -0.070, -0.028, -0.018, 0.015, -0.019, -0.063, -0.090, -0.118, 0.013, -0.001, -0.022, -0.073, 0.032, 0.011, 0.032, 0.043, 0.005, 0.013, 0.009, -0.026, -0.069, -0.043, -0.022, -0.007, 0.118, 0.058, -0.093, -0.142, -0.041, 0.107, 0.120, -0.028, -0.129, -0.055, -0.059, -0.014, 0.079, 0.096, 0.102, 0.049, 0.006, 0.018, 0.122, 0.057, -0.073, -0.113, 0.087, 0.052, 0.032, -0.046, -0.100, 0.069, -0.021, 0.008, 0.131, 0.205, 0.184, 0.076, -0.017, 0.020, -0.063, -0.044, -0.030, 0.042, -0.018, -0.072, 0.010, -0.013, -0.035, 0.031, -0.071, 0.011, 0.010, -0.016, -0.055, -0.012, 0.015, 0.041, 0.039, -0.056, 0.046, 0.145, 0.109, 0.021, 0.021, 0.006, -0.015, -0.019, -0.001, 0.038, -0.003, 0.001, 0.027, -0.057, 0.011, -0.017, -0.039, 0.054, -0.008, 0.002, -0.032, -0.011, 0.012, 0.073, -0.021, 0.052, 0.097, 0.052, 0.035, 0.051, 0.075, 0.035, 0.066, -0.048, -0.040, -0.026, -0.096, 0.062, 0.057, -0.089, -0.051, -0.036, 0.019, -0.001, -0.057, 0.003, 0.069, 0.046, 0.069, 0.149, 0.185, 0.259, 0.240, 0.102, 0.029, 0.022, 0.025, -0.006, 0.052, 0.023, -0.040, -0.035, -0.021, -0.009, 0.035, 0.020, -0.015, 0.003, 0.024, -0.051, 0.029, 0.047, 0.066, 0.042, -0.075, 0.015, 0.065, 0.088, 0.039, -0.018, 0.028, 0.037, 0.038, -0.001, 0.004, -0.008, -0.010, -0.005, -0.006, -0.014, -0.032, -0.019, -0.021, 0.007, -0.063, -0.032, 0.029, 0.024, 0.020, -0.104, -0.048, 0.010, 0.062, 0.089, 0.002, 0.026, 0.023, 0.017, -0.070, -0.118, -0.009, 0.002, -0.034, -0.070, -0.131, -0.078, 0.042, 0.051, -0.013, -0.102, -0.249, -0.068, 0.004, -0.047, 0.077, -0.099, -0.217, -0.059, -0.022, -0.041, 0.062, 0.026, 0.023, 0.004, -0.010, 0.068, 0.098, -0.013, -0.096, -0.036, -0.006, 0.093, -0.024, -0.075, 0.024, -0.009, -0.150, -0.167, -0.247, -0.003, -0.061, -0.156, -0.233, -0.293, -0.028, -0.065, 0.006, 0.016, 0.007, -0.032, 0.009, -0.010, -0.004, 0.079, -0.018, 0.047, 0.035, 0.002, 0.008, -0.016, -0.024, 0.104, 0.030, -0.006, -0.003, -0.054, -0.034, -0.005, 0.002, -0.028, -0.014, -0.062, 0.013, 0.038, -0.028, 0.002, -0.017, -0.024, 0.009, 0.006, 0.014, -0.032, -0.006, 0.019, -0.040, -0.005, 0.008, -0.001, -0.028, -0.073, -0.111, -0.032, -0.092, 0.023, -0.038, -0.008, 0.005, -0.029, -0.007, -0.010, -0.009, 0.061, -0.009, 0.042, 0.017, 0.025, -0.003, 0.013, 0.010, -0.006, 0.027, -0.029, 0.008, -0.034, 0.009, 0.030, -0.044, 0.017, -0.001, -0.062, 0.031, 0.019, 0.014, 0.037, 0.017, 0.063, 0.174, 0.070, 0.084, 0.066, 0.114, 0.132, 0.043, 0.034, -0.079, -0.029, 0.220, 0.031, -0.007, 0.018, 0.079, 0.109, -0.018, 0.034, -0.060, -0.021, 0.026, 0.011, 0.023, -0.028, 0.027, 0.015, -0.001, 0.006, -0.013, -0.043, 0.004, 0.014, -0.021, -0.053, -0.052, 0.023, 0.009, 0.003, 0.017, -0.000, 0.070, 0.073, 0.032, -0.009, 0.045, -0.036, -0.033, -0.006, -0.034, 0.027, -0.060, -0.031, 0.010, 0.016, 0.042, -0.011, 0.028, -0.052, 0.003, -0.039, -0.008, 0.014, 0.024, -0.021, -0.106, -0.144, -0.058, -0.046, -0.028, 0.006, 0.013, 0.000, -0.007, -0.007, -0.000, -0.017, 0.044, 0.034, -0.045, -0.052, -0.007, -0.030, -0.022, -0.045, -0.015, 0.010, -0.030, 0.013, 0.016, -0.022, -0.046, 0.052, -0.041, 0.030, 0.098, 0.082, 0.001, -0.043, 0.093, 0.026, 0.131, 0.040, -0.086, 0.048, 0.023, 0.073, 0.004, 0.014, -0.057, -0.076, -0.139, -0.076, 0.003, 0.024, 0.022, -0.223, -0.124, -0.108, -0.006, -0.002, 0.009, 0.086, 0.115, 0.091, 0.025, 0.000, -0.011, 0.004, -0.009, 0.023, 0.040, -0.086, -0.147, 0.024, -0.084, -0.096, 0.076, 0.078, -0.083, -0.208, -0.194, -0.022, -0.002, -0.002, -0.036, -0.031, 0.027, 0.037, -0.011, 0.060, -0.005, 0.078, -0.004, -0.030, -0.043, -0.055, 0.002, -0.022, -0.009, -0.072, -0.039, -0.044, 0.042, -0.061, -0.007, 0.013, 0.087, 0.028, 0.009, -0.016, -0.021, -0.029, -0.037, 0.028, -0.031, -0.022, 0.017, 0.009, -0.031, -0.110, -0.035, 0.025, 0.001, 0.016, -0.040, -0.033, 0.010, -0.088, 0.102, 0.151, -0.001, -0.074, -0.044, -0.020, 0.042, 0.103, 0.097, 0.031, 0.010, 0.044, -0.050, -0.052, -0.059, -0.062, -0.050, -0.024, -0.000, 0.033, 0.012, -0.059, 0.051, 0.094, 0.094, -0.044, -0.104, -0.167, 0.012, -0.017, -0.013, 0.006, 0.028, 0.058, -0.045, -0.033, -0.000, 0.011, -0.020, 0.012, 0.021, 0.010, -0.016, -0.011, -0.029, -0.085, -0.026, -0.101, -0.055, -0.113, 0.047, 0.064, -0.113, -0.108, -0.165, -0.032, 0.019, 0.004, 0.074, 0.020, 0.007, 0.016, 0.043, -0.035, 0.001, -0.004, 0.038, 0.039, -0.071, -0.053, -0.031, 0.037, 0.040, -0.014, 0.065, -0.038, 0.073, -0.004, -0.022, 0.007, 0.053, 0.033, -0.059, 0.078, 0.042, 0.033, -0.013, -0.022, 0.031, 0.077, -0.069, -0.070, -0.019, 0.066, 0.098, 0.001, -0.039, -0.132, -0.179, -0.168, 0.098, 0.000, -0.167, -0.197, -0.007, 0.016, -0.028, 0.008, 0.002, -0.004, -0.038, 0.016, -0.051, 0.017, 0.011, 0.034, 0.030, -0.036, 0.018, 0.011, -0.040, -0.017, 0.022, -0.023, -0.032, -0.025, -0.046, 0.004, 0.033, -0.047, -0.039, -0.046, 0.045, 0.070, 0.012, -0.087, -0.129, -0.115, 0.046, -0.098, 0.004, -0.130, -0.035, -0.146, -0.023, 0.032, 0.139, -0.091, -0.116, 0.060, 0.103, 0.134, 0.115, 0.114, 0.080, -0.028, 0.039, 0.010, -0.026, 0.001, 0.048, -0.017, 0.005, -0.008, -0.016, 0.012, 0.040, -0.024, 0.005, -0.017, 0.027, 0.072, 0.039, 0.019, -0.023, 0.010, -0.011, -0.019, 0.007, -0.059, -0.015, -0.021, 0.017, 0.004, -0.027, -0.015, -0.047, -0.025, 0.009, 0.014, -0.023, -0.046, -0.034, 0.023, 0.003, 0.005, -0.020, -0.034, -0.026, 0.023, -0.072, 0.018, 0.080, 0.055, 0.017, 0.002, -0.028, 0.024, 0.009, 0.040, -0.049, -0.037, 0.005, -0.014, -0.026, 0.007, -0.041, -0.012, 0.051, -0.041, 0.017, 0.040, 0.073, 0.002, 0.009, -0.039, -0.011, 0.035, 0.054, 0.028, -0.000, -0.079, -0.055, -0.005, 0.033, -0.009, -0.011, -0.001, 0.082, 0.053, 0.004, 0.006, 0.043, 0.059, 0.008, 0.005, 0.030, 0.092, -0.003, 0.023, -0.073, -0.058, -0.048, -0.056, 0.019, 0.003, -0.046, -0.126, -0.005, 0.060, -0.024, -0.038, 0.008, 0.000, 0.042, -0.056, -0.054, 0.087, 0.035, -0.078, 0.051, 0.007, 0.136, -0.016, -0.041, 0.110, 0.116, 0.106, 0.094, 0.036, -0.108, -0.030, 0.018, -0.019, -0.041, -0.002, 0.038, -0.018, -0.013, 0.017, -0.042, 0.037, 0.011, -0.007, -0.054, 0.013, 0.032, -0.027, -0.026, 0.020, -0.011, 0.002, 0.119, 0.013, 0.004, 0.008, -0.004, -0.023, 0.008, 0.044, 0.024, 0.044, 0.009, 0.016, 0.003, -0.005, -0.028, -0.019, -0.007, 0.014, -0.012, 0.033, 0.020, -0.016, 0.018, 0.012, -0.029, 0.006, 0.011, -0.001, -0.012, 0.052, 0.034, 0.017, 0.028, 0.012, -0.057, -0.003, 0.021, -0.008, 0.002, -0.042, 0.006, 0.024, 0.008, 0.042, 0.026, 0.021, 0.001, -0.013, -0.064, 0.034, -0.050, -0.008, 0.016, -0.031, -0.013, 0.049, 0.013, -0.045, -0.039, 0.029, -0.067, -0.019, 0.021, 0.050, 0.062, -0.029, -0.006, 0.009, -0.045, 0.029, 0.057, 0.034, -0.074, -0.030, 0.023, 0.022, 0.112, 0.032, -0.036, 0.040, 0.059, 0.014, 0.022, 0.050, -0.030, 0.028, 0.010, -0.005, 0.011, 0.038, 0.037, -0.030, -0.029, 0.026, 0.060, 0.055, -0.021, -0.012, -0.033, -0.045, 0.093, 0.008, 0.003, 0.021, -0.049, -0.022, -0.045, 0.055, 0.017, -0.005, 0.011, 0.026, -0.000, 0.020, -0.003, 0.026, 0.055, -0.041, 0.021, -0.033, 0.066, 0.014, 0.039, 0.039, 0.046, 0.003, 0.062, -0.021, 0.001, 0.009, 0.039, -0.038, -0.004, 0.021, 0.025, -0.005, 0.065, -0.002, -0.048, -0.020, -0.006, -0.006, 0.039, 0.025, 0.052, 0.028, 0.010, -0.019, 0.049, 0.039, -0.007, -0.041, -0.077, 0.046, -0.038, 0.035, 0.046, 0.069, 0.025, 0.052, -0.002, -0.011, 0.030, 0.016, -0.003, 0.020, 0.015, 0.021, -0.035, -0.008, -0.013, -0.060, 0.015, 0.003, -0.009, -0.052, -0.017, -0.032, -0.027, 0.022, 0.000, 0.028, -0.008, 0.031, -0.039, 0.024, -0.004, 0.020, -0.006, -0.066, -0.003, -0.040, 0.007, -0.037, -0.008, -0.045, 0.036, 0.003, 0.049, -0.052, -0.039, -0.009, 0.029, 0.029, 0.043, -0.007, 0.016, -0.017, 0.043, 0.038, -0.007, -0.002, 0.027, 0.006, -0.003, -0.003, 0.027, -0.008, 0.034, 0.019, 0.020, 0.008, 0.041, 0.033, 0.041, -0.001, -0.018, -0.014, -0.001, 0.012, -0.056, 0.010, -0.028, -0.004, 0.008, -0.019, -0.009, -0.010, -0.049, -0.040, 0.043, -0.079, -0.053, -0.017, 0.037, 0.036, -0.026, -0.040, 0.048, 0.021, 0.027, -0.015, 0.049, 0.023, -0.018, 0.000, 0.003, -0.021, -0.008, -0.008, 0.013, 0.014, -0.005, -0.037, -0.065, 0.004, 0.015, -0.030, 0.049, -0.031, 0.061, 0.020, 0.007, -0.046, 0.046, -0.004, -0.037, -0.042, 0.015, -0.033, 0.026, 0.012, -0.030, -0.031, 0.000, 0.002, -0.007, 0.010, -0.006, -0.011, -0.062, 0.027, -0.029, -0.007, 0.022, 0.016, -0.025, 0.018, 0.025, 0.014, -0.016, 0.048, -0.016, 0.007, 0.014, 0.030, 0.026, 0.017, -0.019, 0.009, 0.006, 0.012, 0.009, 0.050, 0.014, -0.020, -0.038, 0.013, -0.022, -0.039, 0.047, -0.009, -0.063, -0.050, -0.020, -0.026, 0.027, -0.010, -0.013, 0.020, -0.040, -0.022, -0.000, 0.008, 0.026, -0.030, 0.033, -0.049, 0.010, -0.018, -0.005, 0.028, 0.009, 0.056, 0.048, -0.017, -0.020, -0.035, 0.027, 0.001, 0.031, -0.000, 0.001, -0.039, -0.046, 0.011, -0.037, -0.022, 0.019, 0.013, -0.005, -0.081, -0.015, -0.039, -0.003, 0.022, -0.001, 0.006, -0.006, -0.023, -0.003, 0.015, -0.019, 0.067, 0.013, -0.022, -0.007, 0.022, 0.021, -0.036, -0.019, 0.009, 0.001, 0.001, -0.014, -0.008, 0.001, 0.045, 0.038, 0.015, -0.039, 0.013, 0.021, 0.037, 0.007, 0.044, -0.050, -0.066, -0.041, -0.020, 0.006, 0.029, 0.041, -0.022, 0.030, 0.001, -0.005, 0.016, 0.018, 0.031, 0.012, 0.012, -0.005, 0.021, -0.008, 0.029, -0.032, -0.055, 0.012, 0.022, -0.036, -0.004, -0.039, 0.028, -0.002, 0.052, 0.028, 0.016, -0.017, 0.005, -0.031, 0.030, 0.007, -0.002, -0.019, 0.026, 0.043, 0.073, 0.009, 0.026, 0.023, -0.009, 0.009, 0.031, -0.015, 0.015, -0.014, 0.025, -0.004, -0.017, -0.096, -0.026, 0.035, -0.009, -0.005, 0.010, 0.051, -0.034, 0.009, 0.047, 0.027, 0.007, 0.003, -0.018, 0.042, 0.084, 0.004, 0.012, 0.032, -0.023, 0.035, 0.002, -0.031, -0.020, -0.001, 0.027, -0.011, 0.008, 0.004, -0.016, 0.014, -0.002, -0.028, -0.027, 0.010, -0.024, -0.030, -0.033, 0.002, -0.011, 0.001, 0.012, -0.072, -0.004, -0.088, -0.004, -0.029, 0.007, -0.012, -0.028, -0.003, -0.003, 0.014, 0.078, 0.001, -0.025, -0.028, -0.007, -0.015, 0.067, 0.019, 0.029, -0.002, -0.016, -0.047, -0.044, -0.013, 0.001, -0.053, 0.030, -0.037, 0.053, 0.006, 0.031, -0.060, -0.013, 0.002, -0.020, 0.002, -0.016, 0.020, -0.026, 0.037, -0.029, -0.025, -0.012, 0.002, 0.013, 0.012, 0.020, -0.029, 0.015, 0.012, 0.017, 0.023, -0.003, -0.015, 0.018, 0.001, 0.027, -0.026, -0.019, 0.029, 0.007, 0.000, 0.052, 0.011, -0.036, 0.043, -0.019, 0.032, 0.041, 0.036, 0.014, -0.069, -0.046, -0.020, -0.023, -0.034, -0.010, 0.011, 0.080, 0.002, 0.016, 0.025, 0.049, 0.013, -0.077, -0.009, 0.029, -0.023, -0.005, -0.067, -0.004, 0.029, 0.035, 0.030, 0.023, -0.030, 0.002, -0.025, 0.035, 0.030, 0.047, -0.001, 0.030, -0.046, 0.023, -0.015, -0.018, 0.037, 0.040, -0.052, -0.012, 0.000, 0.029, 0.021, -0.036, -0.012, -0.007, 0.044, -0.006, -0.028, -0.063, -0.000, 0.016, -0.018, -0.059, -0.033, 0.017, 0.051, -0.000, -0.022, 0.022, 0.015, 0.014, -0.018, 0.017, 0.036, 0.014, 0.022, 0.039, -0.007, 0.011, -0.010, -0.068, -0.040, 0.016, -0.036, -0.001, -0.028, 0.012, -0.002, 0.071, -0.036, 0.027, 0.017, -0.023, -0.033, -0.027, -0.065, 0.027, 0.031, 0.006, -0.060, 0.004, -0.007, 0.024, 0.012, -0.039, -0.041, -0.036, 0.026, -0.006, 0.001, -0.028, 0.025, -0.027, 0.018, -0.028, 0.037, -0.021, -0.012, 0.016, 0.003, 0.014, 0.039, 0.049, -0.007, 0.009, 0.004, 0.016, 0.008, -0.052, -0.048, -0.015, 0.017, -0.012, -0.067, -0.082, 0.010, -0.073, -0.004, -0.045, -0.002, 0.027, 0.003, -0.027, -0.011, -0.028, 0.018, 0.032, -0.014, -0.003, 0.039, 0.013, 0.047, -0.019, -0.071, -0.003, -0.007, -0.010, -0.015, -0.054, 0.022, 0.032, -0.018, 0.018, -0.010, -0.014, -0.007, -0.023, 0.032, -0.012, -0.018, 0.037, -0.040, -0.042, -0.010, -0.008, 0.000, -0.026, -0.001, 0.016, 0.025, 0.001, -0.027, 0.023, 0.001, 0.001, 0.014, 0.015, -0.030, 0.009, 0.045, 0.010, 0.004, -0.017, -0.027, -0.003, -0.055, 0.008, 0.006, 0.005, 0.000, 0.044, 0.009, -0.017, 0.022, -0.004, 0.001, -0.030, -0.015, 0.013, 0.031, 0.004, -0.029, -0.065, 0.042, -0.042, 0.053, -0.018, 0.011, 0.026, -0.003, -0.028, -0.059, -0.002, 0.027, 0.042, 0.004, 0.035, -0.003, 0.034, -0.032, -0.037, -0.002, -0.029, -0.027, -0.008, -0.001, 0.014, -0.030, -0.026, 0.019, 0.018, 0.015, 0.015, 0.006, 0.011, -0.039, -0.021, 0.010, 0.016, 0.001, -0.016, -0.003, -0.028, -0.018, -0.018, 0.034, -0.029, -0.029, 0.013, -0.029, 0.023, -0.027, 0.006, 0.019, 0.009, 0.000, -0.008, 0.006, -0.021, 0.036, 0.004, -0.001, 0.017, -0.025, -0.012, -0.024, -0.002, 0.034, -0.065, -0.009, 0.008, 0.049, 0.038, -0.003, 0.045, -0.003, 0.027, 0.002, 0.038, -0.000, 0.021, -0.060, -0.038, -0.036, -0.023, -0.009, -0.012, -0.009, -0.036, 0.022, -0.037, 0.005, -0.069, -0.037, 0.004, -0.040, -0.049, 0.011, -0.010, 0.016, -0.014, 0.022, 0.014, 0.024, 0.027, 0.027, 0.022, 0.071, 0.061, 0.031, 0.058, 0.095, -0.017, 0.026, 0.000, -0.075, -0.012, 0.004, 0.042, -0.010, 0.100, -0.036, 0.008, 0.037, 0.002, 0.015, -0.038, -0.042, 0.020, 0.036, -0.020, -0.007, 0.006, -0.043, -0.018, -0.014, 0.082, 0.020, 0.022, 0.014, 0.036, -0.003, 0.001, -0.032, 0.046, -0.048, 0.009, -0.040, 0.002, 0.010, 0.004, -0.022, 0.001, 0.010, 0.043, 0.036, -0.032, 0.016, 0.037, 0.045, -0.005, 0.014, -0.015, -0.000, 0.014, -0.034, -0.031, 0.015, -0.013, -0.028, -0.039, -0.050, 0.022, -0.035, -0.030, -0.036, -0.027, 0.043, -0.013, -0.035, -0.024, 0.003, -0.014, 0.020, -0.046, -0.038, 0.017, 0.030, -0.011, -0.062, 0.033, -0.010, 0.024, -0.005, 0.037, -0.045, -0.010, -0.047, -0.042, -0.006, -0.011, 0.067, 0.043, 0.024, 0.010, -0.026, -0.029, 0.023, -0.018, -0.008, -0.041, 0.015, 0.067, 0.047, 0.004, 0.001, -0.016, -0.013, -0.020, 0.035, 0.046, 0.013, 0.021, 0.011, -0.006, 0.022, -0.026, -0.032, 0.024, -0.061, 0.023, 0.016, 0.006, 0.018, 0.018, 0.041, -0.023, -0.020, 0.031, 0.046, -0.005, -0.034, 0.037, -0.002, 0.018, 0.023, 0.024, -0.038, -0.007, -0.013, 0.023, -0.013, 0.016, -0.008, 0.019, -0.054, 0.003, 0.048, 0.045, 0.016, -0.029, 0.010, -0.010, -0.026, -0.079, -0.017, 0.038, 0.005, 0.060, -0.005, -0.006, 0.034, -0.070, -0.024, -0.056, -0.002, -0.017, 0.014, 0.005, -0.076, -0.038, 0.004, 0.048, -0.005, -0.011, -0.042, -0.102, -0.032, -0.010, -0.022, -0.055, 0.033, 0.032, 0.030, -0.020, -0.048, 0.004, 0.031, 0.037, -0.002, 0.042, -0.001, 0.010, -0.040, 0.014, 0.018, -0.057, -0.012, -0.032, 0.009, -0.048, 0.022, -0.005, 0.017, 0.012, 0.025, -0.004, -0.003, 0.016, -0.084, -0.063, -0.035, -0.014, -0.006, -0.023, 0.033, -0.046, 0.002, 0.037, 0.010, -0.001, -0.013, 0.045, -0.033, 0.026, -0.023, -0.025, 0.046, 0.049, -0.008, -0.025, 0.053, -0.022, 0.040, 0.056, -0.027, -0.013, 0.021, 0.021, -0.024, 0.004, -0.021, -0.024, -0.031, -0.037, -0.008, 0.036, -0.013, -0.043, 0.020, -0.039, 0.017, 0.015, -0.005, -0.024, 0.029, -0.007, 0.004, -0.019, 0.024, -0.017, -0.024, -0.025, 0.005, -0.050, 0.035, -0.004, -0.003, -0.025, -0.013, 0.020, -0.016, 0.006, 0.000, -0.019, -0.013, -0.015, -0.061, -0.012, 0.037, -0.016, -0.012, -0.006, 0.034, 0.022, 0.043, -0.030, -0.031, -0.020, -0.050, -0.028, -0.005, -0.005, -0.024, 0.010, 0.008, -0.036, -0.010, 0.034, 0.029, 0.015, 0.033, 0.038, -0.014, 0.007, -0.035, 0.008, 0.017, -0.015, 0.037, -0.006, 0.005, 0.021, -0.000, 0.045, -0.010, 0.010, 0.001, -0.043, 0.001, -0.038, -0.035, -0.014, -0.006, -0.028, 0.023, -0.021, -0.040, -0.051, 0.019, -0.009, -0.000, -0.001, -0.008, -0.008, -0.036, 0.008, 0.033, -0.033, -0.013, -0.042, -0.077, 0.011, 0.008, -0.058, -0.015, -0.007, -0.001, -0.035, 0.021, -0.007, -0.008, 0.025, -0.006, -0.252, 0.036, -0.054, -0.018, 0.007, -0.039, 0.027, 0.020, -0.016, 0.001, 0.033, -0.002, 0.021, 0.016, -0.005, -0.013, 0.014, -0.033, 0.008, 0.057, -0.023, -0.043, -0.053, -0.016, -0.036, 0.005, -0.055, 0.025, -0.026, 0.018, -0.023, -0.046, 0.046, -0.002, 0.053, 0.020, 0.017, 0.001, -0.002, 0.003, -0.013, -0.022, 0.012, -0.036, -0.021, 0.015, 0.002, -0.008, 0.019, -0.021, 0.029, -0.013, 0.010, 0.001, -0.016, 0.020, -0.039, -0.008, -0.009, 0.052, -0.013, -0.014, -0.055, -0.008, 0.010, -0.038, -0.010, 0.014, -0.005, -0.010, 0.059, 0.017, 0.006, 0.012, 0.025, 0.029, 0.071, -0.026, -0.004, 0.019, -0.008, -0.045, -0.009, -0.043, 0.065, -0.020, 0.020, 0.047, -0.035, 0.003, -0.040, -0.005, -0.060, 0.038, -0.050, 0.053, 0.000, 0.007, 0.044, -0.029, 0.082, -0.005, -0.008, 0.007, -0.014, -0.026, 0.015, 0.017, -0.033, -0.080, 0.055, 0.009, -0.035, -0.017, -0.043, 0.006, 0.039, -0.055, 0.016, 0.008, -0.004, 0.030, -0.074, -0.032, 0.072, 0.048, -0.026, -0.024, 0.021, -0.016, 0.021, -0.016, -0.016, 0.021, -0.054, 0.016, 0.016, -0.029, 0.034, 0.017, -0.002, 0.046, -0.031, -0.006, 0.001, 0.025, -0.011, 0.002, 0.045, -0.021, -0.012, 0.013, 0.026, 0.036, 0.022, 0.052, 0.009, 0.026, -0.053, 0.022, 0.038, 0.022, -0.002, -0.025, -0.008, 0.022, 0.021, 0.020, -0.004, -0.025, -0.018, -0.010, 0.036, -0.011, 0.003, 0.020, -0.027, 0.018, 0.014, -0.020, 0.000, 0.024, 0.024, -0.029, -0.026, -0.026, 0.015, 0.028, 0.065, 0.026, -0.044, 0.007, -0.013, 0.023, 0.015, 0.028, -0.026, 0.044, -0.007, 0.006, -0.029, 0.019, 0.024, -0.018, 0.028, 0.008, 0.037, -0.013, 0.018, -0.025, -0.043, -0.032, 0.021, 0.000, 0.005, -0.054, -0.018, 0.009, 0.030, -0.001, -0.014, 0.021, 0.019, 0.055, -0.034, 0.059, 0.013, 0.013, 0.034, -0.020, 0.038, 0.033, 0.006, -0.026, 0.055, 0.040, -0.030, 0.022, 0.005, -0.021, -0.002, -0.007, 0.028, -0.025, -0.005, -0.009, 0.004, -0.014, 0.039, -0.006, -0.016, -0.009, 0.011, -0.008, -0.037, 0.045, 0.021, -0.026, -0.007, -0.012, 0.004, 0.047, -0.022, 0.017, 0.027, 0.010, 0.004, 0.008, -0.020, -0.009, -0.009, 0.040, -0.041, 0.016, 0.032, -0.025, 0.005, -0.007, -0.004, -0.042, 0.002, -0.028, -0.016, -0.012, -0.000, 0.003, 0.010, -0.021, -0.023, 0.014, 0.031, 0.010, 0.030, 0.014, 0.031, 0.018, 0.017, -0.002, -0.049, 0.003, -0.002, -0.004, -0.035, 0.051, 0.013, -0.029, 0.026, 0.002, 0.019, 0.004, -0.044, 0.030, -0.032, 0.013, -0.001, -0.003, -0.025, -0.001, 0.048, 0.024, -0.037, 0.019, 0.043, 0.006, -0.001, -0.005, 0.021, -0.037, -0.006, -0.008, 0.005, -0.022, 0.006, -0.026, -0.001, -0.021, 0.068, 0.006, 0.004, -0.006, -0.017, -0.021, 0.015, -0.007, 0.015, -0.006, -0.014, 0.030, 0.048, 0.030, 0.023, 0.052, 0.018, -0.030, 0.033, 